{"learner":{"attributes":{},"feature_names":[],"feature_types":[],"gradient_booster":{"model":{"cats":{"enc":[],"feature_segments":[],"sorted_idx":[]},"gbtree_model_param":{"num_parallel_tree":"1","num_trees":"300"},"iteration_indptr":[0,3,6,9,12,15,18,21,24,27,30,33,36,39,42,45,48,51,54,57,60,63,66,69,72,75,78,81,84,87,90,93,96,99,102,105,108,111,114,117,120,123,126,129,132,135,138,141,144,147,150,153,156,159,162,165,168,171,174,177,180,183,186,189,192,195,198,201,204,207,210,213,216,219,222,225,228,231,234,237,240,243,246,249,252,255,258,261,264,267,270,273,276,279,282,285,288,291,294,297,300],"tree_info":[0,1,2,0,1,2,0,1,2,0,1,2,0,1,2,0,1,2,0,1,2,0,1,2,0,1,2,0,1,2,0,1,2,0,1,2,0,1,2,0,1,2,0,1,2,0,1,2,0,1,2,0,1,2,0,1,2,0,1,2,0,1,2,0,1,2,0,1,2,0,1,2,0,1,2,0,1,2,0,1,2,0,1,2,0,1,2,0,1,2,0,1,2,0,1,2,0,1,2,0,1,2,0,1,2,0,1,2,0,1,2,0,1,2,0,1,2,0,1,2,0,1,2,0,1,2,0,1,2,0,1,2,0,1,2,0,1,2,0,1,2,0,1,2,0,1,2,0,1,2,0,1,2,0,1,2,0,1,2,0,1,2,0,1,2,0,1,2,0,1,2,0,1,2,0,1,2,0,1,2,0,1,2,0,1,2,0,1,2,0,1,2,0,1,2,0,1,2,0,1,2,0,1,2,0,1,2,0,1,2,0,1,2,0,1,2,0,1,2,0,1,2,0,1,2,0,1,2,0,1,2,0,1,2,0,1,2,0,1,2,0,1,2,0,1,2,0,1,2,0,1,2,0,1,2,0,1,2,0,1,2,0,1,2,0,1,2,0,1,2,0,1,2,0,1,2,0,1,2,0,1,2,0,1,2,0,1,2,0,1,2,0,1,2,0,1,2,0,1,2],"trees":[{"base_weights":[3.720416E-1,4.627403E-1,-4.281302E-2,6.440518E-1,3.5530657E-1,3.176791E-1,-2.7311766E-1,7.065367E-1,5.312799E-1,4.6189573E-1,2.2534284E-1,5.129657E-1,1.4308424E-1,-3.7543148E-2,-3.1760618E-1,7.5612897E-1,6.2338376E-1,5.953532E-1,4.0787062E-1,4.3560535E-1,7.357864E-1,2.4940306E-1,-6.0514353E-2,5.526801E-1,3.4271064E-1,1.7031331E-1,-2.2890171E-1,-8.691397E-3,-4.223556E-1,-4.2397577E-1,-2.0771602E-1,7.8998965E-1,7.0481884E-1,6.0543686E-1,8.2528716E-1,2.2143143E-1,6.136567E-1,4.533195E-1,2.670594E-1,4.9606287E-1,3.681608E-1,6.702104E-1,8.039353E-1,3.2378322E-1,1.6839708E-1,-9.040816E-2,2.881502E-1,4.775551E-1,6.378985E-1,5.0234705E-1,2.840627E-1,3.0735016E-1,1.1386637E-1,-6.014398E-2,-3.4423244E-1,1.3992868E-2,-3.963898E-1,-3.3014697E-1,-5.162288E-1,-2.5131804E-1,-4.940263E-1,-3.724563E-2,-3.7025043E-1,2.4467061E-1,2.1342327E-1,2.317229E-1,1.9943513E-1,1.9758183E-1,1.6407347E-1,2.31467E-1,2.6519617E-1,9.1559865E-2,-3.6184632E-3,1.9514446E-1,1.5234782E-1,1.12814106E-1,1.8478769E-1,1.3194E-1,3.3741716E-2,1.24588E-1,1.7223665E-1,1.2586747E-1,6.0790185E-2,2.5393438E-1,1.9099513E-1,2.5941345E-1,2.239308E-1,7.097012E-2,1.2381596E-1,6.903246E-2,-2.8506678E-3,2.2603221E-2,-4.3990184E-2,1.6127971E-1,4.9397025E-2,1.9573665E-1,1.2329669E-1,2.1906957E-1,1.6347945E-1,1.6263086E-1,9.481532E-2,5.1458724E-2,1.2038431E-1,1.21027276E-1,6.88441E-2,2.8736803E-3,6.436436E-2,4.1304164E-2,-4.2169116E-2,-7.662841E-2,-1.531686E-1,1.132038E-2,-1.0372387E-1,-4.3758564E-2,-1.448522E-1,-5.464678E-3,-1.12084545E-1,-1.0208503E-1,-1.6508606E-1,-6.7966126E-2,-1.8297845E-1,-1.22664265E-1,-1.765021E-1,-2.1891936E-3,-1.2365982E-1,-9.523045E-2,-1.7184363E-1],"categories":[],"categories_nodes":[],"categories_segments":[],"categories_sizes":[],"default_left":[0,0,0,0,0,0,0,0,0,0,0,0,0,0,0,0,0,0,0,0,0,0,0,0,0,0,0,0,0,0,0,0,0,0,0,0,0,0,0,0,0,0,0,0,0,0,0,0,0,0,0,0,0,0,0,0,0,0,0,0,0,0,0,0,0,0,0,0,0,0,0,0,0,0,0,0,0,0,0,0,0,0,0,0,0,0,0,0,0,0,0,0,0,0,0,0,0,0,0,0,0,0,0,0,0,0,0,0,0,0,0,0,0,0,0,0,0,0,0,0,0,0,0,0,0,0,0],"id":0,"left_children":[1,3,5,7,9,11,13,15,17,19,21,23,25,27,29,31,33,35,37,39,41,43,45,47,49,51,53,55,57,59,61,63,65,67,69,71,73,75,77,79,81,83,85,87,89,91,93,95,97,99,101,103,105,107,109,111,113,115,117,119,121,123,125,-1,-1,-1,-1,-1,-1,-1,-1,-1,-1,-1,-1,-1,-1,-1,-1,-1,-1,-1,-1,-1,-1,-1,-1,-1,-1,-1,-1,-1,-1,-1,-1,-1,-1,-1,-1,-1,-1,-1,-1,-1,-1,-1,-1,-1,-1,-1,-1,-1,-1,-1,-1,-1,-1,-1,-1,-1,-1,-1,-1,-1,-1,-1,-1],"loss_changes":[3.1881875E4,1.3543609E4,1.2620734E4,1.8225859E3,6.0480625E3,2.0204097E3,9.721079E2,6.8597656E2,7.291211E2,1.7269219E3,1.3531045E3,1.8894043E2,3.169516E2,1.6359894E2,9.119038E2,1.8059766E2,2.2486523E2,4.1539844E2,2.0164062E2,8.922539E2,9.333984E1,1.0932852E3,1.5922603E2,1.4488818E2,4.941443E1,2.254856E2,4.1522675E1,1.2057053E2,8.725616E0,4.7937256E2,1.063329E3,1.2566406E2,1.1168555E2,1.7738867E2,1.5322266E1,5.5451233E1,2.2524023E2,2.9928467E2,2.0543872E2,7.273887E2,8.801084E2,6.281543E1,3.5336426E1,7.336699E2,9.5361865E2,1.3112448E2,3.7074722E1,1.4010913E2,9.07876E1,1.0352142E1,5.102478E1,6.3535645E1,2.1682642E2,1.3824279E1,1.8595123E1,1.1063462E2,1.6342407E1,7.060768E0,2.8538513E0,1.0149609E2,2.2622949E2,2.1035054E2,2.0999976E2,0E0,0E0,0E0,0E0,0E0,0E0,0E0,0E0,0E0,0E0,0E0,0E0,0E0,0E0,0E0,0E0,0E0,0E0,0E0,0E0,0E0,0E0,0E0,0E0,0E0,0E0,0E0,0E0,0E0,0E0,0E0,0E0,0E0,0E0,0E0,0E0,0E0,0E0,0E0,0E0,0E0,0E0,0E0,0E0,0E0,0E0,0E0,0E0,0E0,0E0,0E0,0E0,0E0,0E0,0E0,0E0,0E0,0E0,0E0,0E0,0E0,0E0,0E0,0E0],"parents":[2147483647,0,0,1,1,2,2,3,3,4,4,5,5,6,6,7,7,8,8,9,9,10,10,11,11,12,12,13,13,14,14,15,15,16,16,17,17,18,18,19,19,20,20,21,21,22,22,23,23,24,24,25,25,26,26,27,27,28,28,29,29,30,30,31,31,32,32,33,33,34,34,35,35,36,36,37,37,38,38,39,39,40,40,41,41,42,42,43,43,44,44,45,45,46,46,47,47,48,48,49,49,50,50,51,51,52,52,53,53,54,54,55,55,56,56,57,57,58,58,59,59,60,60,61,61,62,62],"right_children":[2,4,6,8,10,12,14,16,18,20,22,24,26,28,30,32,34,36,38,40,42,44,46,48,50,52,54,56,58,60,62,64,66,68,70,72,74,76,78,80,82,84,86,88,90,92,94,96,98,100,102,104,106,108,110,112,114,116,118,120,122,124,126,-1,-1,-1,-1,-1,-1,-1,-1,-1,-1,-1,-1,-1,-1,-1,-1,-1,-1,-1,-1,-1,-1,-1,-1,-1,-1,-1,-1,-1,-1,-1,-1,-1,-1,-1,-1,-1,-1,-1,-1,-1,-1,-1,-1,-1,-1,-1,-1,-1,-1,-1,-1,-1,-1,-1,-1,-1,-1,-1,-1,-1,-1,-1,-1],"split_conditions":[1E0,1.115E3,1.13E3,9.36E2,7.46E2,8.15E2,6E0,9.02E2,9.05E2,1E0,1E0,1.182E3,1E0,1E0,3E0,5E0,1E0,5E2,4E0,1.7E1,3E0,1.7E1,2.562E3,3E0,1E1,1E1,9.3E2,1E0,8.67E2,1.43E3,4E0,4E0,1.2E1,1.7E1,3E0,4E0,4E0,3E0,1.6E1,3E0,4E0,6E0,1.6E1,3E0,4E0,9E0,1.6E3,1E1,4E0,7.35E2,3E0,9.39E2,3E0,1E1,9.67E2,1E0,1.503E3,1.3E3,1.305E3,1E0,2E0,1E0,2.7E1,2.4467061E-1,2.1342327E-1,2.317229E-1,1.9943513E-1,1.9758183E-1,1.6407347E-1,2.31467E-1,2.6519617E-1,9.1559865E-2,-3.6184632E-3,1.9514446E-1,1.5234782E-1,1.12814106E-1,1.8478769E-1,1.3194E-1,3.3741716E-2,1.24588E-1,1.7223665E-1,1.2586747E-1,6.0790185E-2,2.5393438E-1,1.9099513E-1,2.5941345E-1,2.239308E-1,7.097012E-2,1.2381596E-1,6.903246E-2,-2.8506678E-3,2.2603221E-2,-4.3990184E-2,1.6127971E-1,4.9397025E-2,1.9573665E-1,1.2329669E-1,2.1906957E-1,1.6347945E-1,1.6263086E-1,9.481532E-2,5.1458724E-2,1.2038431E-1,1.21027276E-1,6.88441E-2,2.8736803E-3,6.436436E-2,4.1304164E-2,-4.2169116E-2,-7.662841E-2,-1.531686E-1,1.132038E-2,-1.0372387E-1,-4.3758564E-2,-1.448522E-1,-5.464678E-3,-1.12084545E-1,-1.0208503E-1,-1.6508606E-1,-6.7966126E-2,-1.8297845E-1,-1.22664265E-1,-1.765021E-1,-2.1891936E-3,-1.2365982E-1,-9.523045E-2,-1.7184363E-1],"split_indices":[4,763,763,762,762,763,2,763,763,10,13,762,23,23,0,3,10,763,0,2,0,2,762,0,2,2,763,44,762,763,0,0,2,2,0,0,0,0,2,0,0,2,2,0,0,2,763,2,0,763,0,763,0,2,762,49,763,763,763,23,0,23,2,0,0,0,0,0,0,0,0,0,0,0,0,0,0,0,0,0,0,0,0,0,0,0,0,0,0,0,0,0,0,0,0,0,0,0,0,0,0,0,0,0,0,0,0,0,0,0,0,0,0,0,0,0,0,0,0,0,0,0,0,0,0,0,0],"split_type":[0,0,0,0,0,0,0,0,0,0,0,0,0,0,0,0,0,0,0,0,0,0,0,0,0,0,0,0,0,0,0,0,0,0,0,0,0,0,0,0,0,0,0,0,0,0,0,0,0,0,0,0,0,0,0,0,0,0,0,0,0,0,0,0,0,0,0,0,0,0,0,0,0,0,0,0,0,0,0,0,0,0,0,0,0,0,0,0,0,0,0,0,0,0,0,0,0,0,0,0,0,0,0,0,0,0,0,0,0,0,0,0,0,0,0,0,0,0,0,0,0,0,0,0,0,0,0],"sum_hessian":[8.4731725E5,6.9530444E5,1.5201286E5,2.5870083E5,4.366036E5,5.925757E4,9.275529E4,1.6646186E5,9.223897E4,2.3987148E5,1.9673211E5,2.7970389E4,3.128718E4,1.4734638E4,7.802065E4,1.0426835E5,6.2193504E4,6.0713266E4,3.1525705E4,2.1886547E5,2.1006012E4,1.8145906E5,1.527304E4,2.267815E4,5.2922393E3,2.9153695E4,2.1334846E3,1.37078955E4,1.0267424E3,3.964394E4,3.837671E4,6.2806504E4,4.1461844E4,5.712016E4,5.0733447E3,2.8338486E3,5.7879418E4,2.3831518E4,7.6941885E3,1.1540743E5,1.0345805E5,1.0710612E4,1.02954E4,9.459675E4,8.686231E4,1.4067648E4,1.2053917E3,1.2056371E4,1.0621778E4,1.419869E3,3.87237E3,8.504E3,2.0649695E4,8.667434E2,1.2667411E3,1.295109E4,7.568054E2,5.202424E2,5.0650012E2,1.1443369E4,2.8200572E4,1.873167E4,1.964504E4,4.737543E4,1.5431076E4,1.5416352E4,2.6045492E4,2.9924242E4,2.7195916E4,2.656181E3,2.4171638E3,2.0853867E3,7.484619E2,4.293472E4,1.4944698E4,1.6157942E4,7.673575E3,3.6328623E3,4.061326E3,5.6722125E4,5.86853E4,7.8943836E4,2.4514213E4,1.7094379E3,9.001175E3,4.998253E3,5.297147E3,4.7762176E4,4.6834574E4,6.4490914E4,2.2371404E4,3.5631694E3,1.0504479E4,3.980345E2,8.0735724E2,3.3212078E3,8.735164E3,5.3256133E3,5.2961655E3,1.1685822E3,2.5128688E2,1.976921E3,1.8954491E3,3.805131E3,4.698868E3,1.0143744E4,1.0505951E4,2.503053E2,6.164381E2,8.2747986E2,4.3926126E2,1.2150113E4,8.009769E2,1.9484549E2,5.619599E2,6.380331E1,4.5643906E2,8.392589E1,4.2257422E2,1.0705704E4,7.376644E2,1.4823472E4,1.33771E4,1.7347139E4,1.3845319E3,1.5584204E4,4.0608352E3],"tree_param":{"num_deleted":"0","num_feature":"764","num_nodes":"127","size_leaf_vector":"1"}},{"base_weights":[-1.0800587E-1,-1.8419792E-1,2.4049416E-1,-3.2716253E-1,-1.3294472E-1,-6.2414356E-2,3.087971E-1,-3.8787434E-1,-2.2203997E-1,-2.1027696E-1,-2.6624521E-2,-1.0709666E-1,1.41E-1,1.7356184E-1,3.256873E-1,-4.2575112E-1,-3.422739E-1,-2.7381992E-1,-1.329373E-1,-1.9086725E-1,-4.1363356E-1,-5.3876158E-2,1.0655844E-1,-3.8219493E-2,-1.8527429E-1,-7.7240653E-3,1.9591078E-1,1.4919354E-1,5.088999E-1,3.166578E-1,4.992353E-1,-4.3937185E-1,-3.3132705E-1,-3.3225733E-1,-4.608545E-1,-2.9906273E-1,-2.012323E-1,-9.4489485E-2,-2.7235156E-1,-1.7176682E-1,-3.6080116E-1,-4.9336106E-1,-3.9827898E-1,-9.110298E-2,2.8357172E-2,4.919511E-2,3.9673033E-1,-1.8853156E-1,1.8699715E-2,-2.801063E-1,-9.005483E-2,-2.0144166E-2,5.069342E-1,2.9700762E-1,9.153942E-2,3.7998307E-2,2.2286642E-1,3.3268493E-1,5.7418543E-1,3.0494317E-1,4.6559113E-1,5.736244E-1,3.7459758E-1,-1.341243E-1,-9.1494344E-2,-1.117063E-1,-7.9977244E-2,-1.0793717E-1,-8.738185E-2,-1.4697781E-1,-1.23914324E-1,-7.592832E-2,-1.2052611E-1,-9.410927E-2,-4.435271E-2,-4.192124E-2,1.1187778E-2,1.3928368E-2,-8.674477E-2,-4.1427743E-2,-8.1132144E-2,-1.13120295E-1,-3.4423824E-2,-1.4884762E-1,1.5881184E-2,-1.3224144E-1,-1.097206E-1,-2.343061E-2,-9.880307E-2,4.97979E-3,6.6020556E-2,-2.8823526E-3,6.087957E-2,6.473914E-2,1.2697913E-1,-6.1050955E-2,5.9072964E-2,-2.634248E-2,2.8654838E-2,-8.756861E-2,-3.434059E-3,-7.307518E-2,4.3805293E-3,-1.8226089E-3,-1.4573416E-1,8.365506E-2,3.1633016E-1,9.5473215E-2,-9.826409E-2,1.4604452E-2,1.3048826E-1,4.5504053E-3,9.291889E-2,9.373118E-2,4.0519513E-2,1.10087685E-1,-1.106847E-1,1.7816457E-1,3.336785E-2,8.817116E-2,1.4496557E-1,1.6241784E-1,9.932062E-2,1.493034E-1,1.8372878E-1,1.583049E-1,8.664773E-2],"categories":[],"categories_nodes":[],"categories_segments":[],"categories_sizes":[],"default_left":[0,0,0,0,0,0,0,0,0,0,0,0,0,0,0,0,0,0,0,0,0,0,0,0,0,0,0,0,0,0,0,0,0,0,0,0,0,0,0,0,0,0,0,0,0,0,0,0,0,0,0,0,0,0,0,0,0,0,0,0,0,0,0,0,0,0,0,0,0,0,0,0,0,0,0,0,0,0,0,0,0,0,0,0,0,0,0,0,0,0,0,0,0,0,0,0,0,0,0,0,0,0,0,0,0,0,0,0,0,0,0,0,0,0,0,0,0,0,0,0,0,0,0,0,0,0,0],"id":1,"left_children":[1,3,5,7,9,11,13,15,17,19,21,23,25,27,29,31,33,35,37,39,41,43,45,47,49,51,53,55,57,59,61,63,65,67,69,71,73,75,77,79,81,83,85,87,89,91,93,95,97,99,101,103,105,107,109,111,113,115,117,119,121,123,125,-1,-1,-1,-1,-1,-1,-1,-1,-1,-1,-1,-1,-1,-1,-1,-1,-1,-1,-1,-1,-1,-1,-1,-1,-1,-1,-1,-1,-1,-1,-1,-1,-1,-1,-1,-1,-1,-1,-1,-1,-1,-1,-1,-1,-1,-1,-1,-1,-1,-1,-1,-1,-1,-1,-1,-1,-1,-1,-1,-1,-1,-1,-1,-1],"loss_changes":[1.9327605E4,4.376619E3,2.701813E3,1.00590234E3,3.6150176E3,2.1841457E2,2.4334082E2,1.7242871E2,2.6621533E2,1.0046074E3,6.7196436E2,1.0608067E2,3.534678E1,9.662085E1,1.4828418E2,7.00459E1,5.370215E1,6.681421E1,1.13674805E2,7.541416E2,2.6952393E1,4.7050046E2,5.234485E2,8.962578E1,8.3299194E1,7.476416E0,3.3326637E1,9.037483E1,9.026535E0,1.5695996E2,4.3204956E1,4.9276367E1,1.818512E1,4.7078613E1,4.7024536E0,1.27721436E2,5.6518158E1,9.915759E1,2.4563965E1,6.940425E2,9.3923584E1,5.493408E0,2.5581787E1,3.2766992E2,1.0795817E2,2.373867E2,2.4827942E1,1.664389E1,6.2179672E1,1.4638092E1,7.401033E1,7.4747777E0,3.1477818E0,2.1395172E1,2.2891804E1,2.7279442E1,5.214612E1,5.4012775E0,5.2524414E0,1.6415332E2,6.675708E1,8.332581E0,2.2868317E1,0E0,0E0,0E0,0E0,0E0,0E0,0E0,0E0,0E0,0E0,0E0,0E0,0E0,0E0,0E0,0E0,0E0,0E0,0E0,0E0,0E0,0E0,0E0,0E0,0E0,0E0,0E0,0E0,0E0,0E0,0E0,0E0,0E0,0E0,0E0,0E0,0E0,0E0,0E0,0E0,0E0,0E0,0E0,0E0,0E0,0E0,0E0,0E0,0E0,0E0,0E0,0E0,0E0,0E0,0E0,0E0,0E0,0E0,0E0,0E0,0E0,0E0,0E0,0E0],"parents":[2147483647,0,0,1,1,2,2,3,3,4,4,5,5,6,6,7,7,8,8,9,9,10,10,11,11,12,12,13,13,14,14,15,15,16,16,17,17,18,18,19,19,20,20,21,21,22,22,23,23,24,24,25,25,26,26,27,27,28,28,29,29,30,30,31,31,32,32,33,33,34,34,35,35,36,36,37,37,38,38,39,39,40,40,41,41,42,42,43,43,44,44,45,45,46,46,47,47,48,48,49,49,50,50,51,51,52,52,53,53,54,54,55,55,56,56,57,57,58,58,59,59,60,60,61,61,62,62],"right_children":[2,4,6,8,10,12,14,16,18,20,22,24,26,28,30,32,34,36,38,40,42,44,46,48,50,52,54,56,58,60,62,64,66,68,70,72,74,76,78,80,82,84,86,88,90,92,94,96,98,100,102,104,106,108,110,112,114,116,118,120,122,124,126,-1,-1,-1,-1,-1,-1,-1,-1,-1,-1,-1,-1,-1,-1,-1,-1,-1,-1,-1,-1,-1,-1,-1,-1,-1,-1,-1,-1,-1,-1,-1,-1,-1,-1,-1,-1,-1,-1,-1,-1,-1,-1,-1,-1,-1,-1,-1,-1,-1,-1,-1,-1,-1,-1,-1,-1,-1,-1,-1,-1,-1,-1,-1,-1],"split_conditions":[1E0,9.35E2,8.15E2,9.36E2,7.87E2,1.189E3,9.39E2,5.24E2,1.532E3,1E0,1E0,3E0,1E1,1E0,1E0,1E0,1E0,4E0,1E0,1E0,6E0,1.44E3,1E0,1E1,4E0,1E0,3E0,5.84E2,9E0,1E0,1.745E3,1E0,5E0,5E0,5E0,3E0,1.1E1,4E0,5E2,1E0,1E0,1E0,1.425E3,1E0,1E0,4E0,5E0,1E0,5.44E2,1E0,1.5E1,1E0,7E0,1E0,1E0,1E0,3E0,1E0,1E0,1E0,1.75E3,5.53E2,1.2E1,-1.341243E-1,-9.1494344E-2,-1.117063E-1,-7.9977244E-2,-1.0793717E-1,-8.738185E-2,-1.4697781E-1,-1.23914324E-1,-7.592832E-2,-1.2052611E-1,-9.410927E-2,-4.435271E-2,-4.192124E-2,1.1187778E-2,1.3928368E-2,-8.674477E-2,-4.1427743E-2,-8.1132144E-2,-1.13120295E-1,-3.4423824E-2,-1.4884762E-1,1.5881184E-2,-1.3224144E-1,-1.097206E-1,-2.343061E-2,-9.880307E-2,4.97979E-3,6.6020556E-2,-2.8823526E-3,6.087957E-2,6.473914E-2,1.2697913E-1,-6.1050955E-2,5.9072964E-2,-2.634248E-2,2.8654838E-2,-8.756861E-2,-3.434059E-3,-7.307518E-2,4.3805293E-3,-1.8226089E-3,-1.4573416E-1,8.365506E-2,3.1633016E-1,9.5473215E-2,-9.826409E-2,1.4604452E-2,1.3048826E-1,4.5504053E-3,9.291889E-2,9.373118E-2,4.0519513E-2,1.10087685E-1,-1.106847E-1,1.7816457E-1,3.336785E-2,8.817116E-2,1.4496557E-1,1.6241784E-1,9.932062E-2,1.493034E-1,1.8372878E-1,1.583049E-1,8.664773E-2],"split_indices":[4,763,763,762,762,762,763,762,762,10,8,0,2,27,27,6,9,0,5,9,2,762,23,2,0,56,0,762,2,23,763,8,3,3,3,0,2,0,763,7,39,193,763,9,20,0,2,28,762,49,2,440,2,440,419,28,0,431,446,44,763,762,2,0,0,0,0,0,0,0,0,0,0,0,0,0,0,0,0,0,0,0,0,0,0,0,0,0,0,0,0,0,0,0,0,0,0,0,0,0,0,0,0,0,0,0,0,0,0,0,0,0,0,0,0,0,0,0,0,0,0,0,0,0,0,0,0],"split_type":[0,0,0,0,0,0,0,0,0,0,0,0,0,0,0,0,0,0,0,0,0,0,0,0,0,0,0,0,0,0,0,0,0,0,0,0,0,0,0,0,0,0,0,0,0,0,0,0,0,0,0,0,0,0,0,0,0,0,0,0,0,0,0,0,0,0,0,0,0,0,0,0,0,0,0,0,0,0,0,0,0,0,0,0,0,0,0,0,0,0,0,0,0,0,0,0,0,0,0,0,0,0,0,0,0,0,0,0,0,0,0,0,0,0,0,0,0,0,0,0,0,0,0,0,0,0,0],"sum_hessian":[7.2788694E5,5.9730044E5,1.3058647E5,1.5762348E5,4.3967697E5,2.4027932E4,1.0655854E5,9.991597E4,5.7707508E4,2.5453753E5,1.8513944E5,1.9700879E4,4.3270513E3,1.1832249E4,9.472629E4,5.4575742E4,4.534023E4,3.64964E4,2.121111E4,2.3236134E5,2.2176191E4,1.536919E5,3.144754E4,1.0474222E4,9.226658E3,1.1670348E3,3.1600166E3,1.10320205E4,8.0022833E2,9.004424E4,4.6820527E3,4.769243E4,6.883313E3,4.181214E4,3.528088E3,2.7077062E4,9.419337E3,1.6627295E4,4.583816E3,2.0888489E5,2.3476457E4,3.576152E3,1.860004E4,1.0579752E5,4.7894383E4,2.6257861E4,5.1896787E3,2.8762686E3,7.597953E3,4.621761E3,4.6048965E3,1.1404729E3,2.6561846E1,1.6042512E3,1.5557653E3,4.3970396E3,6.6349805E3,2.1797578E2,5.8225256E2,8.348093E4,6.5633057E3,2.929814E3,1.7522386E3,4.510286E4,2.5895693E3,4.2102637E3,2.6730493E3,2.500566E4,1.6806482E4,2.1881902E3,1.3398976E3,1.8706707E4,8.3703545E3,3.0305803E3,6.3887563E3,1.2377399E4,4.2498955E3,2.2935944E2,4.3544565E3,1.5573844E5,5.314646E4,2.2020193E4,1.4562638E3,3.5580227E3,1.8129515E1,8.0579365E3,1.0542102E4,1.0032409E5,5.473427E3,4.5127734E4,2.7666482E3,1.8993828E4,7.2640327E3,6.648894E2,4.5247896E3,2.769178E3,1.0709062E2,3.183627E3,4.414326E3,4.427396E3,1.9436526E2,1.8660751E3,2.7388215E3,1.1080084E3,3.2464478E1,1.981598E1,6.745866E0,1.5519707E3,5.228046E1,1.3841674E3,1.7159796E2,4.0572168E3,3.39823E2,3.2831287E3,3.351852E3,2.0827861E2,9.697182E0,5.582204E2,2.4032146E1,7.861548E4,4.8654556E3,4.1959287E3,2.3673772E3,9.954368E2,1.9343771E3,6.2736554E2,1.1248732E3],"tree_param":{"num_deleted":"0","num_feature":"764","num_nodes":"127","size_leaf_vector":"1"}},{"base_weights":[-3.511525E-1,-4.702909E-1,-2.3236491E-1,-5.186319E-1,-4.1815376E-1,-2.9295632E-1,4.435336E-2,-2.5072968E-1,-5.222205E-1,-5.05605E-1,-4.0127605E-1,-3.105273E-1,6.930463E-2,-2.923186E-1,1.0785314E-1,-3.2042497E-1,-3.8692944E-2,-5.4817003E-1,-4.9816903E-1,-5.1111305E-1,-3.5140267E-1,-4.180782E-1,-3.2163188E-1,-3.2059354E-1,9.324604E-2,1.1701811E-3,2.7406788E-1,-3.9386383E-1,-2.5696856E-1,2.5992072E-1,-4.9434803E-2,-3.8408995E-1,-1.1961772E-1,-1.9803429E-1,1.9519316E-1,-5.367979E-1,-5.950515E-1,-5.35571E-1,-4.8275107E-1,-5.4870915E-1,-4.954646E-1,-3.1044722E-1,-4.6116808E-1,-4.2638677E-1,-2.263206E-1,-3.4051737E-1,-6.0243756E-2,-3.4442428E-1,-2.0991686E-1,-5.5663757E-2,2.3061119E-1,1.3670725E-1,-1.3987103E-1,1.6648507E-1,5.6298304E-1,-4.34649E-1,-1.7382543E-1,-2.7540654E-1,3.960832E-2,9.270415E-2,4.4373032E-1,-2.532199E-1,1.4575092E-1,-1.2801267E-1,-2.7593343E-2,-6.96056E-2,1.6468409E-1,-6.380005E-2,2.3100735E-1,3.3527028E-3,1.6806117E-1,-1.6538045E-1,-1.5453434E-1,-1.7309381E-1,-1.8471262E-1,-1.3880168E-1,-1.634893E-1,-1.4936158E-1,-1.3048728E-1,-1.6485845E-1,8.281192E-2,-1.5000306E-1,-1.0282288E-1,-9.423248E-2,2.2685272E-1,-1.405018E-1,1.6618153E-1,-1.3475788E-1,-1.07222944E-1,-9.182836E-2,-4.6782054E-2,-8.248468E-2,-1.2200888E-1,-3.864861E-2,4.1518975E-2,-8.6121835E-2,-1.2065042E-1,-8.610999E-2,6.7344923E-3,1.3131727E-2,-5.679566E-2,1.05259284E-1,1.4185719E-2,-1.8792931E-2,7.1269915E-2,-4.9413428E-2,1.19354226E-1,8.171579E-2,-2.9988023E-2,1.1566992E-1,2.4214546E-1,-1.3510707E-1,-6.797104E-2,-7.108297E-2,2.3405775E-1,-1.0213815E-1,-6.6892505E-2,6.1172254E-2,-9.316101E-2,6.559827E-2,-4.126455E-2,4.1292407E-2,1.7946723E-1,-8.278694E-2,3.9417576E-2,8.819364E-3,1.7551419E-1],"categories":[],"categories_nodes":[],"categories_segments":[],"categories_sizes":[],"default_left":[0,0,0,0,0,0,0,0,0,0,0,0,0,0,0,0,0,0,0,0,0,0,0,0,0,0,0,0,0,0,0,0,0,0,0,0,0,0,0,0,0,0,0,0,0,0,0,0,0,0,0,0,0,0,0,0,0,0,0,0,0,0,0,0,0,0,0,0,0,0,0,0,0,0,0,0,0,0,0,0,0,0,0,0,0,0,0,0,0,0,0,0,0,0,0,0,0,0,0,0,0,0,0,0,0,0,0,0,0,0,0,0,0,0,0,0,0,0,0,0,0,0,0,0,0,0,0],"id":2,"left_children":[1,3,5,7,9,11,13,15,17,19,21,23,25,27,29,31,33,35,37,39,41,43,45,47,49,51,53,55,57,59,61,63,65,67,69,71,73,75,77,79,81,83,85,87,89,91,93,95,97,99,101,103,105,107,109,111,113,115,117,119,121,123,125,-1,-1,-1,-1,-1,-1,-1,-1,-1,-1,-1,-1,-1,-1,-1,-1,-1,-1,-1,-1,-1,-1,-1,-1,-1,-1,-1,-1,-1,-1,-1,-1,-1,-1,-1,-1,-1,-1,-1,-1,-1,-1,-1,-1,-1,-1,-1,-1,-1,-1,-1,-1,-1,-1,-1,-1,-1,-1,-1,-1,-1,-1,-1,-1],"loss_changes":[9.536219E3,8.476875E2,5.657453E3,1.676914E2,2.3869922E2,1.7619863E3,1.2958336E3,3.411444E1,1.0723828E2,2.2057617E1,1.8143555E2,1.0730684E3,1.7866112E2,3.4424805E1,1.2197278E3,2.217186E1,2.1371313E1,4.3851562E1,5.129883E1,1.4597656E1,3.9303436E0,1.7841016E2,1.16686035E2,6.7930273E2,1.3138332E2,1.8372105E2,9.928461E1,2.2197083E1,3.9040497E1,7.968778E2,9.9713995E2,1.6382706E1,3.1674536E1,4.99354E0,1.5607352E1,2.0638672E1,5.678711E0,1.7612305E1,4.5541992E1,5.163086E0,1.2226074E1,2.8263702E0,2.0368385E0,1.6876758E2,2.6088318E1,9.5562256E1,2.1737505E1,7.017832E2,8.17812E2,4.0975334E1,7.363501E1,9.855537E1,6.29739E1,6.580511E1,3.725122E1,6.7391663E0,2.365389E1,2.2844666E1,2.4146698E1,3.9381735E2,5.839751E2,1.0728369E2,6.5448E2,0E0,0E0,0E0,0E0,0E0,0E0,0E0,0E0,0E0,0E0,0E0,0E0,0E0,0E0,0E0,0E0,0E0,0E0,0E0,0E0,0E0,0E0,0E0,0E0,0E0,0E0,0E0,0E0,0E0,0E0,0E0,0E0,0E0,0E0,0E0,0E0,0E0,0E0,0E0,0E0,0E0,0E0,0E0,0E0,0E0,0E0,0E0,0E0,0E0,0E0,0E0,0E0,0E0,0E0,0E0,0E0,0E0,0E0,0E0,0E0,0E0,0E0,0E0,0E0],"parents":[2147483647,0,0,1,1,2,2,3,3,4,4,5,5,6,6,7,7,8,8,9,9,10,10,11,11,12,12,13,13,14,14,15,15,16,16,17,17,18,18,19,19,20,20,21,21,22,22,23,23,24,24,25,25,26,26,27,27,28,28,29,29,30,30,31,31,32,32,33,33,34,34,35,35,36,36,37,37,38,38,39,39,40,40,41,41,42,42,43,43,44,44,45,45,46,46,47,47,48,48,49,49,50,50,51,51,52,52,53,53,54,54,55,55,56,56,57,57,58,58,59,59,60,60,61,61,62,62],"right_children":[2,4,6,8,10,12,14,16,18,20,22,24,26,28,30,32,34,36,38,40,42,44,46,48,50,52,54,56,58,60,62,64,66,68,70,72,74,76,78,80,82,84,86,88,90,92,94,96,98,100,102,104,106,108,110,112,114,116,118,120,122,124,126,-1,-1,-1,-1,-1,-1,-1,-1,-1,-1,-1,-1,-1,-1,-1,-1,-1,-1,-1,-1,-1,-1,-1,-1,-1,-1,-1,-1,-1,-1,-1,-1,-1,-1,-1,-1,-1,-1,-1,-1,-1,-1,-1,-1,-1,-1,-1,-1,-1,-1,-1,-1,-1,-1,-1,-1,-1,-1,-1,-1,-1,-1,-1,-1],"split_conditions":[1.318E3,9.3E2,1E0,5E2,6E0,1E0,6E0,1E0,7.2E2,1E0,1E0,1E0,2.4E1,2E0,3E0,4E0,1.9E1,1E0,1E1,4E0,4E0,1E0,1E0,2.6E1,1.7E3,3E0,4E0,5E0,1E0,2E0,4E0,1E0,2.7E1,1E0,4E0,5E0,3E0,2E0,4E0,1E0,1E0,1E0,1E0,4E0,4E0,3E0,4E0,3E0,4E0,3E0,3E0,9E0,2.3E1,3E0,1.905E3,1E0,1E0,1.7E3,4E0,2.3E1,1.4E1,1E0,2.7E1,-1.2801267E-1,-2.7593343E-2,-6.96056E-2,1.6468409E-1,-6.380005E-2,2.3100735E-1,3.3527028E-3,1.6806117E-1,-1.6538045E-1,-1.5453434E-1,-1.7309381E-1,-1.8471262E-1,-1.3880168E-1,-1.634893E-1,-1.4936158E-1,-1.3048728E-1,-1.6485845E-1,8.281192E-2,-1.5000306E-1,-1.0282288E-1,-9.423248E-2,2.2685272E-1,-1.405018E-1,1.6618153E-1,-1.3475788E-1,-1.07222944E-1,-9.182836E-2,-4.6782054E-2,-8.248468E-2,-1.2200888E-1,-3.864861E-2,4.1518975E-2,-8.6121835E-2,-1.2065042E-1,-8.610999E-2,6.7344923E-3,1.3131727E-2,-5.679566E-2,1.05259284E-1,1.4185719E-2,-1.8792931E-2,7.1269915E-2,-4.9413428E-2,1.19354226E-1,8.171579E-2,-2.9988023E-2,1.1566992E-1,2.4214546E-1,-1.3510707E-1,-6.797104E-2,-7.108297E-2,2.3405775E-1,-1.0213815E-1,-6.6892505E-2,6.1172254E-2,-9.316101E-2,6.559827E-2,-4.126455E-2,4.1292407E-2,1.7946723E-1,-8.278694E-2,3.9417576E-2,8.819364E-3,1.7551419E-1],"split_indices":[763,763,4,763,2,13,2,16,763,13,4,18,2,0,0,0,2,4,2,3,0,13,23,2,763,0,0,2,44,0,0,69,2,39,0,3,0,3,0,516,17,198,47,0,3,0,0,0,0,0,0,2,2,0,763,23,23,763,0,2,2,49,2,0,0,0,0,0,0,0,0,0,0,0,0,0,0,0,0,0,0,0,0,0,0,0,0,0,0,0,0,0,0,0,0,0,0,0,0,0,0,0,0,0,0,0,0,0,0,0,0,0,0,0,0,0,0,0,0,0,0,0,0,0,0,0,0],"split_type":[0,0,0,0,0,0,0,0,0,0,0,0,0,0,0,0,0,0,0,0,0,0,0,0,0,0,0,0,0,0,0,0,0,0,0,0,0,0,0,0,0,0,0,0,0,0,0,0,0,0,0,0,0,0,0,0,0,0,0,0,0,0,0,0,0,0,0,0,0,0,0,0,0,0,0,0,0,0,0,0,0,0,0,0,0,0,0,0,0,0,0,0,0,0,0,0,0,0,0,0,0,0,0,0,0,0,0,0,0,0,0,0,0,0,0,0,0,0,0,0,0,0,0,0,0,0,0],"sum_hessian":[6.738417E5,3.364226E5,3.3741906E5,1.7456188E5,1.6186073E5,2.7680794E5,6.0611125E4,2.308304E3,1.7225356E5,2.6180162E4,1.3568058E5,2.6400297E5,1.2804958E4,9.617282E3,5.0993844E4,1.7368875E3,5.7141644E2,8.28468E4,8.9406766E4,2.527503E4,9.05133E2,1.1203977E5,2.3640795E4,2.5758158E5,6.421409E3,9.608695E3,3.1962632E3,2.4808218E3,7.1364604E3,2.592685E4,2.5066994E4,1.3180829E3,4.1880453E2,3.3996155E2,2.3145488E2,6.668359E4,1.6163201E4,2.6087658E4,6.331911E4,7.4182656E3,1.7856764E4,6.6196875E2,2.4316423E2,1.07385695E5,4.6540776E3,2.2047541E4,1.5932527E3,2.1194398E5,4.5637594E4,3.0815115E3,3.339898E3,4.899974E3,4.708721E3,2.3301614E3,8.661018E2,2.092071E3,3.8875052E2,6.718827E3,4.176336E2,1.3576995E4,1.23498545E4,1.2263206E4,1.2803787E4,1.1498585E3,1.6822438E2,3.5908682E2,5.97177E1,3.3566812E2,4.2934294E0,1.5456346E2,7.689142E1,3.9979246E4,2.6704352E4,8.636429E3,7.5267725E3,2.9835432E3,2.3104115E4,4.809383E4,1.5225282E4,7.41124E3,7.025612E0,1.733843E4,5.1833405E2,6.6040753E2,1.5612471E0,2.419933E2,1.1709354E0,8.069852E4,2.6687178E4,2.1798914E3,2.4741863E3,1.1077438E4,1.0970103E4,1.1845962E3,4.0865643E2,1.0633615E5,1.0560783E5,3.4265473E4,1.1372124E4,1.7673318E3,1.3141798E3,2.0163506E3,1.3235472E3,1.6463351E3,3.253639E3,4.501466E3,2.0725555E2,1.6674119E3,6.627494E2,5.0311188E2,3.6298996E2,1.944143E3,1.4792816E2,3.6533182E2,2.3418707E1,2.9960332E3,3.7227937E3,2.845373E2,1.3309631E2,8.77616E3,4.800835E3,4.1431597E3,8.206695E3,1.1578989E4,6.8421655E2,1.0123517E4,2.680271E3],"tree_param":{"num_deleted":"0","num_feature":"764","num_nodes":"127","size_leaf_vector":"1"}},{"base_weights":[2.7928704E-1,3.4544662E-1,-3.1372596E-2,4.521572E-1,2.3714066E-1,2.2259265E-1,-2.3137015E-1,5.1186347E-1,3.7674594E-1,3.498866E-1,1.5432914E-1,4.060253E-1,1.1179418E-1,-9.928715E-2,-2.8537425E-1,5.659545E-1,4.550515E-1,4.5725137E-1,2.99929E-1,3.2865965E-1,5.475122E-1,1.667184E-1,-2.2659789E-1,4.9625844E-1,3.5724935E-1,1.3331488E-1,-2.0087248E-1,-7.3567264E-2,-4.4338167E-1,-3.8970485E-1,-1.8060786E-1,5.943186E-1,5.2282107E-1,4.3779513E-1,6.178585E-1,1.5693627E-1,4.6904305E-1,3.1433842E-1,4.608369E-2,3.420804E-1,6.333299E-2,4.9388337E-1,6.038263E-1,1.8462145E-1,-8.0455326E-2,-3.2603326E-1,-8.164449E-2,5.0888216E-1,2.8078648E-1,4.7110546E-1,3.1336385E-1,1.5296187E-1,-1.580566E-1,-1.4161935E-1,-4.2254224E-1,-4.9658358E-2,-4.502691E-1,-3.2745734E-1,-5.387654E-1,-3.0904886E-1,-4.8345035E-1,-3.739017E-2,-3.1739616E-1,1.8441692E-1,1.5922062E-1,1.7677222E-1,1.4878258E-1,1.2571138E-1,1.8143281E-1,2.0287938E-1,1.7149405E-1,9.623943E-2,2.128403E-2,1.4986019E-1,1.15137026E-1,1.04066856E-1,6.437259E-2,8.307377E-2,-4.2192854E-2,8.523479E-2,1.2024998E-1,2.9579261E-2,-1.07857734E-1,1.7177531E-1,1.2781759E-1,1.9576305E-1,1.6620646E-1,6.477344E-2,4.282353E-3,-5.291046E-2,6.48909E-3,-4.9506206E-2,-1.1525015E-1,2.4546271E-2,-5.9993267E-2,1.7323592E-1,1.4440668E-1,1.0693271E-1,8.599638E-3,1.4359374E-1,-1.3355824E-2,7.0818216E-2,1.2021532E-1,7.155076E-2,2.724954E-2,-2.7846852E-2,-1.0605849E-1,6.623133E-3,-6.3116655E-2,-1.3029134E-1,3.460114E-2,-9.232788E-3,-1.0504104E-1,-9.8809734E-2,-1.7986637E-1,5.5114023E-2,-1.0424694E-1,-2.1097194E-1,-1.496353E-1,-1.8573695E-1,-7.293493E-2,-1.169857E-1,-1.6808312E-1,2.7175223E-2,-3.8011126E-2,-3.491654E-2,-1.1141674E-1],"categories":[],"categories_nodes":[],"categories_segments":[],"categories_sizes":[],"default_left":[0,0,0,0,0,0,0,0,0,0,0,0,0,0,0,0,0,0,0,0,0,0,0,0,0,0,0,0,0,0,0,0,0,0,0,0,0,0,0,0,0,0,0,0,0,0,0,0,0,0,0,0,0,0,0,0,0,0,0,0,0,0,0,0,0,0,0,0,0,0,0,0,0,0,0,0,0,0,0,0,0,0,0,0,0,0,0,0,0,0,0,0,0,0,0,0,0,0,0,0,0,0,0,0,0,0,0,0,0,0,0,0,0,0,0,0,0,0,0,0,0,0,0,0,0,0,0],"id":3,"left_children":[1,3,5,7,9,11,13,15,17,19,21,23,25,27,29,31,33,35,37,39,41,43,45,47,49,51,53,55,57,59,61,63,65,67,69,71,73,75,77,79,81,83,85,87,89,91,93,95,97,99,101,103,105,107,109,111,113,115,117,119,121,123,125,-1,-1,-1,-1,-1,-1,-1,-1,-1,-1,-1,-1,-1,-1,-1,-1,-1,-1,-1,-1,-1,-1,-1,-1,-1,-1,-1,-1,-1,-1,-1,-1,-1,-1,-1,-1,-1,-1,-1,-1,-1,-1,-1,-1,-1,-1,-1,-1,-1,-1,-1,-1,-1,-1,-1,-1,-1,-1,-1,-1,-1,-1,-1,-1],"loss_changes":[1.760461E4,8.161211E3,7.6385854E3,1.6013438E3,3.2720742E3,1.3465249E3,6.000967E2,6.0979297E2,9.718926E2,6.2238086E2,9.5361523E2,1.09629395E2,2.7797192E2,2.1606618E2,6.526509E2,1.2409961E2,2.7176367E2,2.7169824E2,2.9420117E2,4.7718848E2,4.3168945E1,8.659795E2,9.171585E1,2.366211E1,8.079053E1,2.212638E2,3.4883972E1,2.0461253E2,1.8598969E1,2.2607666E2,5.837436E2,7.925586E1,7.174512E1,2.7396875E2,2.4652832E1,4.0853798E1,1.9176758E2,2.471001E2,1.863169E2,4.3430957E2,9.6270706E1,3.913684E1,1.6661865E1,9.726128E2,1.2942049E2,3.527112E1,5.0136963E1,1.5324463E1,9.271099E0,1.7535217E1,7.887793E1,1.924032E2,3.1103943E1,2.3653934E1,3.5970993E0,1.2121384E2,2.4274872E1,7.9386444E0,5.764679E0,3.2869812E2,9.916211E1,1.6640675E2,1.6536646E2,0E0,0E0,0E0,0E0,0E0,0E0,0E0,0E0,0E0,0E0,0E0,0E0,0E0,0E0,0E0,0E0,0E0,0E0,0E0,0E0,0E0,0E0,0E0,0E0,0E0,0E0,0E0,0E0,0E0,0E0,0E0,0E0,0E0,0E0,0E0,0E0,0E0,0E0,0E0,0E0,0E0,0E0,0E0,0E0,0E0,0E0,0E0,0E0,0E0,0E0,0E0,0E0,0E0,0E0,0E0,0E0,0E0,0E0,0E0,0E0,0E0,0E0,0E0,0E0],"parents":[2147483647,0,0,1,1,2,2,3,3,4,4,5,5,6,6,7,7,8,8,9,9,10,10,11,11,12,12,13,13,14,14,15,15,16,16,17,17,18,18,19,19,20,20,21,21,22,22,23,23,24,24,25,25,26,26,27,27,28,28,29,29,30,30,31,31,32,32,33,33,34,34,35,35,36,36,37,37,38,38,39,39,40,40,41,41,42,42,43,43,44,44,45,45,46,46,47,47,48,48,49,49,50,50,51,51,52,52,53,53,54,54,55,55,56,56,57,57,58,58,59,59,60,60,61,61,62,62],"right_children":[2,4,6,8,10,12,14,16,18,20,22,24,26,28,30,32,34,36,38,40,42,44,46,48,50,52,54,56,58,60,62,64,66,68,70,72,74,76,78,80,82,84,86,88,90,92,94,96,98,100,102,104,106,108,110,112,114,116,118,120,122,124,126,-1,-1,-1,-1,-1,-1,-1,-1,-1,-1,-1,-1,-1,-1,-1,-1,-1,-1,-1,-1,-1,-1,-1,-1,-1,-1,-1,-1,-1,-1,-1,-1,-1,-1,-1,-1,-1,-1,-1,-1,-1,-1,-1,-1,-1,-1,-1,-1,-1,-1,-1,-1,-1,-1,-1,-1,-1,-1,-1,-1,-1,-1,-1,-1],"split_conditions":[1E0,1.322E3,1.215E3,7.87E2,5.81E2,7.51E2,1E1,9.35E2,9.05E2,1E0,1E0,5.66E2,1E0,1E0,3E0,5E0,1E0,5E2,1E0,1E0,3E0,1E0,3E0,1E0,1E1,1E0,1.026E3,1E0,5E0,2E0,4E0,4E0,1.1E1,1E0,4E0,1.1E1,1.587E3,4E0,1E0,3E0,1E0,4E0,4E0,1E0,3E0,1E1,1.6E1,1E1,7.3E2,1E0,3E0,9.39E2,4E0,1E1,1E0,1E0,6E0,1.226E3,2E0,1.4E1,1.64E3,4E0,1.5E1,1.8441692E-1,1.5922062E-1,1.7677222E-1,1.4878258E-1,1.2571138E-1,1.8143281E-1,2.0287938E-1,1.7149405E-1,9.623943E-2,2.128403E-2,1.4986019E-1,1.15137026E-1,1.04066856E-1,6.437259E-2,8.307377E-2,-4.2192854E-2,8.523479E-2,1.2024998E-1,2.9579261E-2,-1.07857734E-1,1.7177531E-1,1.2781759E-1,1.9576305E-1,1.6620646E-1,6.477344E-2,4.282353E-3,-5.291046E-2,6.48909E-3,-4.9506206E-2,-1.1525015E-1,2.4546271E-2,-5.9993267E-2,1.7323592E-1,1.4440668E-1,1.0693271E-1,8.599638E-3,1.4359374E-1,-1.3355824E-2,7.0818216E-2,1.2021532E-1,7.155076E-2,2.724954E-2,-2.7846852E-2,-1.0605849E-1,6.623133E-3,-6.3116655E-2,-1.3029134E-1,3.460114E-2,-9.232788E-3,-1.0504104E-1,-9.8809734E-2,-1.7986637E-1,5.5114023E-2,-1.0424694E-1,-2.1097194E-1,-1.496353E-1,-1.8573695E-1,-7.293493E-2,-1.169857E-1,-1.6808312E-1,2.7175223E-2,-3.8011126E-2,-3.491654E-2,-1.1141674E-1],"split_indices":[4,763,763,762,762,763,2,763,763,10,18,762,23,23,0,3,10,763,23,8,0,13,0,28,2,28,762,49,2,0,0,0,2,9,3,2,762,0,8,0,39,3,0,8,0,2,2,2,763,56,0,763,0,2,457,44,2,763,0,2,763,3,2,0,0,0,0,0,0,0,0,0,0,0,0,0,0,0,0,0,0,0,0,0,0,0,0,0,0,0,0,0,0,0,0,0,0,0,0,0,0,0,0,0,0,0,0,0,0,0,0,0,0,0,0,0,0,0,0,0,0,0,0,0,0,0,0],"split_type":[0,0,0,0,0,0,0,0,0,0,0,0,0,0,0,0,0,0,0,0,0,0,0,0,0,0,0,0,0,0,0,0,0,0,0,0,0,0,0,0,0,0,0,0,0,0,0,0,0,0,0,0,0,0,0,0,0,0,0,0,0,0,0,0,0,0,0,0,0,0,0,0,0,0,0,0,0,0,0,0,0,0,0,0,0,0,0,0,0,0,0,0,0,0,0,0,0,0,0,0,0,0,0,0,0,0,0,0,0,0,0,0,0,0,0,0,0,0,0,0,0,0,0,0,0,0,0],"sum_hessian":[8.5654106E5,7.061548E5,1.5038627E5,3.5569556E5,3.5045922E5,6.625402E4,8.413224E4,1.9851617E5,1.5717939E5,1.4840547E5,2.0205377E5,2.4948242E4,4.130578E4,2.441674E4,5.9715504E4,1.01688734E5,9.682743E4,7.67447E4,8.043469E4,1.3401375E5,1.4391723E4,1.9568972E5,6.3640386E3,8.750697E3,1.6197546E4,3.8646348E4,2.6594353E3,2.2719732E4,1.6970085E3,2.9918621E4,2.979688E4,6.133964E4,4.0349098E4,8.75513E4,9.276134E3,2.9000225E3,7.384468E4,7.6113875E4,4.320806E3,1.2756117E5,6.4525796E3,7.3766235E3,7.0150986E3,1.8247323E5,1.3216485E4,3.7739375E3,2.590101E3,8.265113E3,4.8558405E2,4.5036304E3,1.1693915E4,3.6205508E4,2.4408396E3,2.099792E3,5.5964325E2,2.1364857E4,1.3548751E3,7.680248E2,9.2898376E2,1.6084375E4,1.3834246E4,1.4556972E4,1.523991E4,4.6430895E4,1.4908745E4,1.1618438E4,2.8730658E4,7.871288E4,8.838418E3,4.091423E3,5.1847104E3,9.971397E2,1.9028828E3,5.4387863E4,1.9456812E4,5.738697E4,1.872691E4,1.9320044E3,2.3888015E3,6.4214344E4,6.3346824E4,5.9565933E3,4.959866E2,3.4110933E3,3.9655303E3,3.5401514E3,3.4749473E3,1.5415683E5,2.8316408E4,6.813885E3,6.4026006E3,1.0021458E3,2.7717915E3,1.0877672E3,1.502334E3,2.3617725E3,5.9033403E3,3.7318564E2,1.12398415E2,4.4387905E3,6.483985E1,6.2058213E3,5.488094E3,1.5231689E4,2.0973818E4,1.8311981E3,6.096415E2,6.213741E2,1.478418E3,5.478554E2,1.1787837E1,2.0102684E4,1.2621727E3,7.5037085E2,6.045043E2,2.865515E1,7.393696E2,1.7841794E2,7.505658E2,2.8189087E3,1.3265466E4,6.2428193E3,7.591427E3,5.983465E3,8.573507E3,3.2275127E3,1.2012397E4],"tree_param":{"num_deleted":"0","num_feature":"764","num_nodes":"127","size_leaf_vector":"1"}},{"base_weights":[-7.741339E-2,-1.391031E-1,1.829411E-1,-2.5985584E-1,-9.774979E-2,-5.3395167E-2,2.2523585E-1,-3.0494022E-1,-1.4530028E-1,-1.8611804E-1,-3.606348E-2,-9.012672E-2,1.0890596E-1,1.2973258E-1,2.3960654E-1,-3.5244966E-1,-2.6228076E-1,-2.02035E-1,-8.721174E-2,-1.6941972E-1,-3.4189293E-1,-2.364261E-2,-2.8940332E-1,-1.05334476E-1,1.7836203E-1,1.23085216E-1,-3.365288E-1,4.035359E-2,1.8937394E-1,2.2537658E-1,3.2093015E-1,-3.6617097E-1,-2.587737E-1,-2.7058268E-1,-1.2023322E-1,-1.1235047E-2,-2.1090613E-1,-5.244647E-2,-2.1623334E-1,-1.7955865E-1,5.6799974E-2,-3.8196838E-1,-3.047258E-1,-4.5777008E-2,9.8625876E-2,-2.9950297E-1,1.291826E-1,-1.2311934E-1,7.130113E-2,4.602029E-2,2.951401E-1,1.923005E-1,4.5980766E-2,-4.0211806E-1,2.8444526E-1,5.584524E-2,-3.2740209E-1,2.553255E-1,1.2284636E-1,2.3904444E-1,1.5925913E-1,3.5481456E-1,8.021257E-2,-1.1552106E-1,-9.227186E-2,-7.8730315E-2,1.4100094E-1,-8.5915536E-2,-5.713835E-2,-3.311759E-2,-1.7504247E-1,1.3876536E-2,-6.921465E-2,-8.233353E-2,-5.5533804E-2,-2.0872757E-2,6.918414E-2,-7.708127E-2,-3.0049501E-2,-4.9398396E-2,-9.2985764E-2,-1.6220918E-2,4.8121627E-2,-1.2946388E-1,-1.08641855E-1,-1.2216296E-1,-8.6897E-2,-2.6038777E-2,1.7594134E-3,1.3928345E-2,9.984632E-2,-9.4777115E-2,-2.8028416E-2,4.6155892E-2,-6.662141E-2,-2.1785926E-2,-5.485185E-2,1.5653433E-2,2.3131964E-1,1.10087216E-1,-1.7077716E-2,1.4942098E-1,5.2030645E-2,6.1014295E-3,7.014062E-2,5.792539E-3,1.3497639E-1,-1.05828375E-1,-1.9718193E-1,1.6692905E-1,-1.535308E-1,-3.413539E-2,2.5957784E-2,-1.1838132E-1,-3.9123893E-2,3.6059026E-2,9.225419E-2,1.042133E-2,6.461557E-2,6.9157094E-2,1.1796701E-1,5.3525556E-2,1.839598E-2,1.2262811E-1,7.849765E-2,5.648471E-3,7.355698E-2],"categories":[],"categories_nodes":[],"categories_segments":[],"categories_sizes":[],"default_left":[0,0,0,0,0,0,0,0,0,0,0,0,0,0,0,0,0,0,0,0,0,0,0,0,0,0,0,0,0,0,0,0,0,0,0,0,0,0,0,0,0,0,0,0,0,0,0,0,0,0,0,0,0,0,0,0,0,0,0,0,0,0,0,0,0,0,0,0,0,0,0,0,0,0,0,0,0,0,0,0,0,0,0,0,0,0,0,0,0,0,0,0,0,0,0,0,0,0,0,0,0,0,0,0,0,0,0,0,0,0,0,0,0,0,0,0,0,0,0,0,0,0,0,0,0,0,0],"id":4,"left_children":[1,3,5,7,9,11,13,15,17,19,21,23,25,27,29,31,33,35,37,39,41,43,45,47,49,51,53,55,57,59,61,63,65,67,69,71,73,75,77,79,81,83,85,87,89,91,93,95,97,99,101,103,105,107,109,111,113,115,117,119,121,123,125,-1,-1,-1,-1,-1,-1,-1,-1,-1,-1,-1,-1,-1,-1,-1,-1,-1,-1,-1,-1,-1,-1,-1,-1,-1,-1,-1,-1,-1,-1,-1,-1,-1,-1,-1,-1,-1,-1,-1,-1,-1,-1,-1,-1,-1,-1,-1,-1,-1,-1,-1,-1,-1,-1,-1,-1,-1,-1,-1,-1,-1,-1,-1,-1],"loss_changes":[1.1345221E4,2.8515928E3,1.3525508E3,7.52333E2,2.318822E3,1.2246236E2,1.5748682E2,2.1177246E2,1.355755E2,4.5481787E2,7.8828735E2,6.841145E1,2.398621E1,8.002437E1,1.1537256E2,6.3470703E1,6.492529E1,3.5226562E1,9.1181946E1,3.622749E2,2.5100342E1,6.4629785E2,4.9536133E1,4.9809586E1,1.3868893E1,1.9603642E1,4.888935E0,3.4258118E1,3.9476593E1,7.668994E1,1.2112854E2,4.7648926E1,1.6988434E1,6.5835205E1,1.3809887E1,1.1691989E1,3.2544556E1,7.767555E1,2.0360733E1,2.9359814E2,7.784247E1,7.8481445E0,1.3454468E1,4.283245E2,4.4746634E2,3.865747E1,2.4305387E0,4.3424103E1,1.9373724E1,1.397209E1,1.1694618E1,1.38135605E1,1.8735058E1,1.108633E0,2.8368363E0,3.0028189E1,3.1664925E0,3.1845032E1,3.655742E1,9.23418E1,2.7287964E1,6.532703E1,1.8570217E1,0E0,0E0,0E0,0E0,0E0,0E0,0E0,0E0,0E0,0E0,0E0,0E0,0E0,0E0,0E0,0E0,0E0,0E0,0E0,0E0,0E0,0E0,0E0,0E0,0E0,0E0,0E0,0E0,0E0,0E0,0E0,0E0,0E0,0E0,0E0,0E0,0E0,0E0,0E0,0E0,0E0,0E0,0E0,0E0,0E0,0E0,0E0,0E0,0E0,0E0,0E0,0E0,0E0,0E0,0E0,0E0,0E0,0E0,0E0,0E0,0E0,0E0,0E0,0E0],"parents":[2147483647,0,0,1,1,2,2,3,3,4,4,5,5,6,6,7,7,8,8,9,9,10,10,11,11,12,12,13,13,14,14,15,15,16,16,17,17,18,18,19,19,20,20,21,21,22,22,23,23,24,24,25,25,26,26,27,27,28,28,29,29,30,30,31,31,32,32,33,33,34,34,35,35,36,36,37,37,38,38,39,39,40,40,41,41,42,42,43,43,44,44,45,45,46,46,47,47,48,48,49,49,50,50,51,51,52,52,53,53,54,54,55,55,56,56,57,57,58,58,59,59,60,60,61,61,62,62],"right_children":[2,4,6,8,10,12,14,16,18,20,22,24,26,28,30,32,34,36,38,40,42,44,46,48,50,52,54,56,58,60,62,64,66,68,70,72,74,76,78,80,82,84,86,88,90,92,94,96,98,100,102,104,106,108,110,112,114,116,118,120,122,124,126,-1,-1,-1,-1,-1,-1,-1,-1,-1,-1,-1,-1,-1,-1,-1,-1,-1,-1,-1,-1,-1,-1,-1,-1,-1,-1,-1,-1,-1,-1,-1,-1,-1,-1,-1,-1,-1,-1,-1,-1,-1,-1,-1,-1,-1,-1,-1,-1,-1,-1,-1,-1,-1,-1,-1,-1,-1,-1,-1,-1,-1,-1,-1,-1],"split_conditions":[1E0,9.35E2,7.51E2,1.069E3,5.81E2,1.196E3,9.39E2,5.24E2,1.532E3,1E0,1E0,1E0,1E0,5.84E2,1.196E3,1E0,1E0,5E2,1E0,1E0,1.512E3,1E0,1E0,1E0,1.6E1,3E0,1E0,1E0,3E0,1.937E3,2.343E3,4E0,1E0,1E0,1E0,1E0,1E1,1E0,8.42E2,1E0,1.62E3,1E1,5E0,1.055E3,1E0,1E0,1.815E3,3E0,1E0,2E0,2.2E1,8E0,1E0,7E0,3E0,6E0,6E0,1E1,4E0,1E0,2.7E1,1.655E3,4E0,-1.1552106E-1,-9.227186E-2,-7.8730315E-2,1.4100094E-1,-8.5915536E-2,-5.713835E-2,-3.311759E-2,-1.7504247E-1,1.3876536E-2,-6.921465E-2,-8.233353E-2,-5.5533804E-2,-2.0872757E-2,6.918414E-2,-7.708127E-2,-3.0049501E-2,-4.9398396E-2,-9.2985764E-2,-1.6220918E-2,4.8121627E-2,-1.2946388E-1,-1.08641855E-1,-1.2216296E-1,-8.6897E-2,-2.6038777E-2,1.7594134E-3,1.3928345E-2,9.984632E-2,-9.4777115E-2,-2.8028416E-2,4.6155892E-2,-6.662141E-2,-2.1785926E-2,-5.485185E-2,1.5653433E-2,2.3131964E-1,1.10087216E-1,-1.7077716E-2,1.4942098E-1,5.2030645E-2,6.1014295E-3,7.014062E-2,5.792539E-3,1.3497639E-1,-1.05828375E-1,-1.9718193E-1,1.6692905E-1,-1.535308E-1,-3.413539E-2,2.5957784E-2,-1.1838132E-1,-3.9123893E-2,3.6059026E-2,9.225419E-2,1.042133E-2,6.461557E-2,6.9157094E-2,1.1796701E-1,5.3525556E-2,1.839598E-2,1.2262811E-1,7.849765E-2,5.648471E-3,7.355698E-2],"split_indices":[4,763,763,762,762,762,763,762,762,10,9,23,440,762,762,6,14,763,5,8,763,8,117,394,2,0,56,415,0,763,762,0,191,6,58,85,2,422,763,9,763,2,2,762,23,39,763,0,56,0,2,2,25,3,0,2,3,2,0,49,2,763,0,0,0,0,0,0,0,0,0,0,0,0,0,0,0,0,0,0,0,0,0,0,0,0,0,0,0,0,0,0,0,0,0,0,0,0,0,0,0,0,0,0,0,0,0,0,0,0,0,0,0,0,0,0,0,0,0,0,0,0,0,0,0,0,0],"split_type":[0,0,0,0,0,0,0,0,0,0,0,0,0,0,0,0,0,0,0,0,0,0,0,0,0,0,0,0,0,0,0,0,0,0,0,0,0,0,0,0,0,0,0,0,0,0,0,0,0,0,0,0,0,0,0,0,0,0,0,0,0,0,0,0,0,0,0,0,0,0,0,0,0,0,0,0,0,0,0,0,0,0,0,0,0,0,0,0,0,0,0,0,0,0,0,0,0,0,0,0,0,0,0,0,0,0,0,0,0,0,0,0,0,0,0,0,0,0,0,0,0,0,0,0,0,0,0],"sum_hessian":[7.063721E5,5.710622E5,1.353099E5,1.4567681E5,4.2538538E5,2.0539309E4,1.147706E5,1.045346E5,4.1142207E4,1.7487194E5,2.5051345E5,1.6749135E4,3.790174E3,1.501246E4,9.975814E4,4.9452547E4,5.508206E4,2.081239E4,2.0329814E4,1.5794327E5,1.6928674E4,2.3880623E5,1.1707218E4,1.585186E4,8.972741E2,3.6739473E3,1.1622679E2,6.0090015E3,9.003459E3,8.490523E4,1.4852913E4,4.3131844E4,6.3207026E3,5.2039707E4,3.0423508E3,9.247686E2,1.9887623E4,1.6015731E4,4.3140825E3,1.5116827E5,6.7749907E3,8.141173E3,8.7875E3,2.02202E5,3.6604223E4,1.1431678E4,2.7553973E2,1.4402066E4,1.4497942E3,4.2126215E2,4.76012E2,1.935231E3,1.7387164E3,1.0544211E2,1.0784685E1,5.7669194E3,2.420824E2,4.5198774E3,4.483581E3,7.035811E4,1.4547124E4,1.3019729E4,1.8331848E3,3.2609117E4,1.0522729E4,6.289749E3,3.0953619E1,4.3464574E4,8.575131E3,2.9802751E3,6.2075756E1,7.334419E2,1.913267E2,5.7394834E3,1.414814E4,1.5102555E4,9.1317664E2,3.1930815E3,1.1210011E3,1.3567038E5,1.54979E4,3.2729922E3,3.5019988E3,2.3199302E3,5.8212427E3,1.1231324E3,7.6643677E3,1.12691055E5,8.951095E4,2.9933713E4,6.67051E3,1.05875E4,8.4417834E2,2.579823E2,1.7557423E1,7.804644E3,6.5974224E3,1.4122744E3,3.751979E1,1.0168664E2,3.195755E2,1.7729631E2,2.987157E2,3.7653644E2,1.5586946E3,1.6320026E3,1.0671377E2,9.034788E1,1.5094227E1,8.2631645E0,2.5215206E0,8.828791E2,4.88404E3,1.7975597E2,6.2326435E1,1.2602036E3,3.2596736E3,2.2974739E3,2.1861074E3,6.667573E4,3.6823833E3,1.216627E4,2.3808547E3,8.242925E3,4.776803E3,1.3368772E3,4.9630762E2],"tree_param":{"num_deleted":"0","num_feature":"764","num_nodes":"127","size_leaf_vector":"1"}},{"base_weights":[-2.9726067E-1,-4.0310374E-1,-1.8122935E-1,-4.5646882E-1,-3.5279283E-1,-2.3622112E-1,5.154092E-2,-2.1370326E-1,-4.5990402E-1,-4.4151667E-1,-3.360808E-1,-2.522492E-1,6.68313E-2,-2.3992598E-1,1.0231122E-1,-3.1606215E-1,-7.9024605E-2,-4.8793516E-1,-4.3538094E-1,-4.4735926E-1,-2.79566E-1,-3.5673535E-1,-2.7471888E-1,-2.6222327E-1,1.22408666E-1,1.0580039E-1,-1.7813595E-1,-3.4098867E-1,-2.0526995E-1,7.523726E-3,2.7321383E-1,-3.649023E-1,-1.6592994E-1,-2.0952782E-1,2.4257821E-1,-4.7536543E-1,-5.4003686E-1,-4.91403E-1,-4.2475933E-1,-4.8949254E-1,-4.2996517E-1,-3.1073582E-1,-1.7749639E-1,-3.072439E-1,-4.5747775E-1,-3.37374E-1,-5.9677348E-2,-2.7260306E-1,3.7775643E-2,2.2206883E-1,-2.5939057E-2,4.8550777E-2,2.6996043E-1,-6.676295E-2,-2.961555E-1,-3.8256842E-1,-1.2054731E-1,-2.2328687E-1,5.471749E-2,1.020144E-1,-8.892629E-2,3.8585308E-1,1.2276469E-1,-1.18060194E-1,-3.1995592E-3,-1.0573808E-2,-9.052222E-2,-3.3454407E-2,-1.4949946E-1,3.0012077E-2,1.5324368E-1,-1.4703564E-1,-1.360503E-1,-1.7167366E-1,-1.5824154E-1,-1.4841644E-1,-9.931606E-2,-1.3335003E-1,-1.17790565E-1,-1.4418696E-1,-1.6465881E-1,-1.2947921E-1,-1.309823E-2,-9.518706E-2,9.207088E-2,-5.6636423E-2,3.2019246E-1,-9.940554E-2,-5.953509E-2,-1.3886122E-1,-9.139479E-2,-1.1642104E-1,-8.895666E-2,-2.2578921E-2,2.300904E-1,-6.758132E-2,-9.642477E-2,-3.2775495E-2,5.7780016E-2,2.2923131E-4,9.047097E-2,-5.8205184E-2,2.8946614E-2,4.6543133E-2,-2.163671E-2,5.3165834E-2,1.5134805E-1,-4.1893575E-2,4.2985056E-2,-1.18848875E-1,-1.8268323E-2,-1.232012E-1,-8.6812824E-2,-5.4989677E-2,1.972139E-1,-8.598629E-2,-5.4583397E-2,5.583725E-2,-7.680883E-2,-3.2857123E-3,6.597375E-2,-7.1631856E-2,1.3309305E-2,6.839727E-2,1.6587526E-1,-3.1761844E-2,9.536032E-2],"categories":[],"categories_nodes":[],"categories_segments":[],"categories_sizes":[],"default_left":[0,0,0,0,0,0,0,0,0,0,0,0,0,0,0,0,0,0,0,0,0,0,0,0,0,0,0,0,0,0,0,0,0,0,0,0,0,0,0,0,0,0,0,0,0,0,0,0,0,0,0,0,0,0,0,0,0,0,0,0,0,0,0,0,0,0,0,0,0,0,0,0,0,0,0,0,0,0,0,0,0,0,0,0,0,0,0,0,0,0,0,0,0,0,0,0,0,0,0,0,0,0,0,0,0,0,0,0,0,0,0,0,0,0,0,0,0,0,0,0,0,0,0,0,0,0,0],"id":5,"left_children":[1,3,5,7,9,11,13,15,17,19,21,23,25,27,29,31,33,35,37,39,41,43,45,47,49,51,53,55,57,59,61,63,65,67,69,71,73,75,77,79,81,83,85,87,89,91,93,95,97,99,101,103,105,107,109,111,113,115,117,119,121,123,125,-1,-1,-1,-1,-1,-1,-1,-1,-1,-1,-1,-1,-1,-1,-1,-1,-1,-1,-1,-1,-1,-1,-1,-1,-1,-1,-1,-1,-1,-1,-1,-1,-1,-1,-1,-1,-1,-1,-1,-1,-1,-1,-1,-1,-1,-1,-1,-1,-1,-1,-1,-1,-1,-1,-1,-1,-1,-1,-1,-1,-1,-1,-1,-1],"loss_changes":[7.623996E3,8.7148047E2,3.7908252E3,1.3128125E2,2.4763672E2,1.1636084E3,8.3750867E2,3.0303032E1,1.0657031E2,2.4935059E1,1.7813379E2,8.502412E2,1.1489746E2,2.9336609E1,7.8080853E2,9.102409E0,3.9978863E1,4.7208984E1,4.9098633E1,1.852246E1,2.8873062E0,5.244219E2,4.7719946E2,6.901201E2,8.724243E1,9.756767E1,2.1694344E1,1.9591263E1,2.9309937E1,2.8257837E2,2.9135986E2,9.550636E0,5.466008E0,1.911556E1,1.0465963E1,1.8614258E1,5.3964844E0,6.8601074E0,4.4003906E1,3.6654053E0,1.1393555E1,2.9601898E0,3.275454E0,1.8498145E2,2.8422363E1,5.6688232E1,1.0303404E2,4.9483594E2,1.6875204E2,6.209929E1,4.882863E1,9.90495E1,5.8300873E1,1.3051063E1,1.8839851E1,4.600464E0,1.6788319E1,1.5263947E1,1.663259E1,2.0859935E2,3.0647894E2,2.592025E2,3.2851202E2,0E0,0E0,0E0,0E0,0E0,0E0,0E0,0E0,0E0,0E0,0E0,0E0,0E0,0E0,0E0,0E0,0E0,0E0,0E0,0E0,0E0,0E0,0E0,0E0,0E0,0E0,0E0,0E0,0E0,0E0,0E0,0E0,0E0,0E0,0E0,0E0,0E0,0E0,0E0,0E0,0E0,0E0,0E0,0E0,0E0,0E0,0E0,0E0,0E0,0E0,0E0,0E0,0E0,0E0,0E0,0E0,0E0,0E0,0E0,0E0,0E0,0E0,0E0,0E0],"parents":[2147483647,0,0,1,1,2,2,3,3,4,4,5,5,6,6,7,7,8,8,9,9,10,10,11,11,12,12,13,13,14,14,15,15,16,16,17,17,18,18,19,19,20,20,21,21,22,22,23,23,24,24,25,25,26,26,27,27,28,28,29,29,30,30,31,31,32,32,33,33,34,34,35,35,36,36,37,37,38,38,39,39,40,40,41,41,42,42,43,43,44,44,45,45,46,46,47,47,48,48,49,49,50,50,51,51,52,52,53,53,54,54,55,55,56,56,57,57,58,58,59,59,60,60,61,61,62,62],"right_children":[2,4,6,8,10,12,14,16,18,20,22,24,26,28,30,32,34,36,38,40,42,44,46,48,50,52,54,56,58,60,62,64,66,68,70,72,74,76,78,80,82,84,86,88,90,92,94,96,98,100,102,104,106,108,110,112,114,116,118,120,122,124,126,-1,-1,-1,-1,-1,-1,-1,-1,-1,-1,-1,-1,-1,-1,-1,-1,-1,-1,-1,-1,-1,-1,-1,-1,-1,-1,-1,-1,-1,-1,-1,-1,-1,-1,-1,-1,-1,-1,-1,-1,-1,-1,-1,-1,-1,-1,-1,-1,-1,-1,-1,-1,-1,-1,-1,-1,-1,-1,-1,-1,-1,-1,-1,-1],"split_conditions":[1.355E3,9.35E2,1E0,5E2,6E0,1E0,6E0,1.8E1,7.2E2,1E0,4E0,1E0,1E0,2E0,1.855E3,1E0,4E0,1E0,6E0,4E0,1.252E3,3E0,2.6E1,1E0,3E0,2.4E1,3E0,5E0,1E0,3E0,3E0,1E0,3E0,3E0,2.7E1,5E0,1E1,1E0,5E0,1E0,1E0,1E0,1E0,1E0,1E0,1.5E1,1E0,3E0,1.7E1,1E1,1.6E1,3E0,4E0,6E0,2.2E1,9.67E2,1E0,1.7E3,4E0,2E0,4E0,2E0,4E0,-1.18060194E-1,-3.1995592E-3,-1.0573808E-2,-9.052222E-2,-3.3454407E-2,-1.4949946E-1,3.0012077E-2,1.5324368E-1,-1.4703564E-1,-1.360503E-1,-1.7167366E-1,-1.5824154E-1,-1.4841644E-1,-9.931606E-2,-1.3335003E-1,-1.17790565E-1,-1.4418696E-1,-1.6465881E-1,-1.2947921E-1,-1.309823E-2,-9.518706E-2,9.207088E-2,-5.6636423E-2,3.2019246E-1,-9.940554E-2,-5.953509E-2,-1.3886122E-1,-9.139479E-2,-1.1642104E-1,-8.895666E-2,-2.2578921E-2,2.300904E-1,-6.758132E-2,-9.642477E-2,-3.2775495E-2,5.7780016E-2,2.2923131E-4,9.047097E-2,-5.8205184E-2,2.8946614E-2,4.6543133E-2,-2.163671E-2,5.3165834E-2,1.5134805E-1,-4.1893575E-2,4.2985056E-2,-1.18848875E-1,-1.8268323E-2,-1.232012E-1,-8.6812824E-2,-5.4989677E-2,1.972139E-1,-8.598629E-2,-5.4583397E-2,5.583725E-2,-7.680883E-2,-3.2857123E-3,6.597375E-2,-7.1631856E-2,1.3309305E-2,6.839727E-2,1.6587526E-1,-3.1761844E-2,9.536032E-2],"split_indices":[763,763,4,763,2,13,2,2,763,13,0,18,37,0,763,16,0,4,2,3,763,0,2,16,0,2,0,2,44,0,0,410,0,0,2,3,2,17,3,6,74,27,447,4,13,2,26,0,2,2,2,0,0,3,2,762,23,763,0,0,0,0,0,0,0,0,0,0,0,0,0,0,0,0,0,0,0,0,0,0,0,0,0,0,0,0,0,0,0,0,0,0,0,0,0,0,0,0,0,0,0,0,0,0,0,0,0,0,0,0,0,0,0,0,0,0,0,0,0,0,0,0,0,0,0,0,0],"split_type":[0,0,0,0,0,0,0,0,0,0,0,0,0,0,0,0,0,0,0,0,0,0,0,0,0,0,0,0,0,0,0,0,0,0,0,0,0,0,0,0,0,0,0,0,0,0,0,0,0,0,0,0,0,0,0,0,0,0,0,0,0,0,0,0,0,0,0,0,0,0,0,0,0,0,0,0,0,0,0,0,0,0,0,0,0,0,0,0,0,0,0,0,0,0,0,0,0,0,0,0,0,0,0,0,0,0,0,0,0,0,0,0,0,0,0,0,0,0,0,0,0,0,0,0,0,0,0],"sum_hessian":[6.2079544E5,3.2464956E5,2.9614584E5,1.5753902E5,1.6711056E5,2.395519E5,5.6593938E4,2.1989832E3,1.5534003E5,2.6483693E4,1.4062686E5,2.2751888E5,1.2033026E4,8.395061E3,4.819888E4,1.2486405E3,9.503425E2,7.247658E4,8.286345E4,2.5559824E4,9.2386926E2,1.0520861E5,3.541825E4,2.2161928E5,5.899605E3,1.0382033E4,1.6509929E3,2.141438E3,6.253623E3,3.1004137E4,1.719474E4,9.410675E2,3.0757306E2,6.762681E2,2.7407437E2,5.839797E4,1.4078611E4,1.319946E4,6.966399E4,7.460735E3,1.809909E4,7.061746E2,2.1769463E2,7.055252E4,3.4656086E4,2.7426592E4,7.9916606E3,2.1420789E5,7.411378E3,3.5285942E3,2.3710105E3,7.698525E3,2.6835085E3,8.5022046E2,8.007725E2,1.8009973E3,3.4044064E2,5.84847E3,4.0515295E2,1.5661114E4,1.5343023E4,9.832051E3,7.3626885E3,8.705899E2,7.0477554E1,1.5738696E2,1.5018608E2,5.0594763E2,1.7032051E2,1.7986705E2,9.420732E1,3.4856625E4,2.3541346E4,3.9384502E3,1.0140161E4,1.2929792E4,2.6966806E2,4.3140645E4,2.6523346E4,6.498945E3,9.617899E2,1.8022824E4,7.6265396E1,6.992406E2,6.934054E0,2.1657837E2,1.1162541E0,5.775286E4,1.2799666E4,3.3472867E4,1.1832207E3,1.2234891E4,1.51917E4,7.844665E3,1.4699576E2,1.08756445E5,1.0545145E5,3.8015613E3,3.6098164E3,9.3285187E2,2.5957424E3,9.9896716E2,1.3720435E3,4.0875898E3,3.610935E3,1.9243298E3,7.5917865E2,6.3145294E2,2.1876753E2,5.614298E2,2.393427E2,1.3811147E3,4.1988248E2,3.157361E2,2.4704529E1,2.3075266E3,3.5409434E3,2.8502463E2,1.2012834E2,7.9982827E3,7.662832E3,7.222562E3,8.1204614E3,5.0564673E3,4.775584E3,3.390216E3,3.9724722E3],"tree_param":{"num_deleted":"0","num_feature":"764","num_nodes":"127","size_leaf_vector":"1"}},{"base_weights":[2.1261148E-1,2.6252368E-1,-2.3956787E-2,3.5216147E-1,1.8106107E-1,1.6531283E-1,-1.9203207E-1,4.0924105E-1,2.9888216E-1,2.5217304E-1,9.9229105E-2,2.7867275E-1,5.9035566E-2,-1.699733E-1,-4.9502778E-1,4.4122055E-1,3.4869578E-1,3.7632495E-1,2.54522E-1,2.3525725E-1,4.3506315E-1,2.0940614E-1,6.0665313E-2,3.2671103E-1,2.0383376E-1,7.751663E-2,-2.0176281E-1,-1.5052694E-1,-4.8241657E-1,-3.2173002E-1,-5.284969E-1,4.5977122E-1,3.8445088E-1,3.7592065E-1,2.6854542E-1,1.1246344E-1,3.8912684E-1,3.0080357E-1,1.9696422E-1,3.6200574E-1,2.1059614E-1,5.5799526E-1,4.119515E-1,2.3464268E-1,7.354328E-2,-8.422895E-3,1.3310993E-1,3.723905E-1,2.6741213E-1,2.2398113E-1,-1.2637268E-1,1.8591511E-1,3.304862E-2,2.6374167E-1,-2.257167E-1,-1.309229E-1,-4.339887E-1,-2.814774E-1,-5.2209526E-1,-2.3402579E-1,-4.0131956E-1,-3.8320774E-1,-5.517322E-1,1.24657705E-1,1.6482653E-1,1.4034621E-1,8.9432865E-2,9.441496E-2,1.4806792E-1,9.673098E-2,6.895262E-3,6.0929187E-2,1.6539845E-3,1.3857195E-1,1.0632077E-1,6.1302237E-2,9.988281E-2,7.534069E-2,1.0952575E-2,1.124467E-1,3.7208583E-2,4.5791876E-2,8.093789E-2,1.6768214E-1,-1.4556718E-1,1.0780738E-1,1.4032634E-1,7.5436324E-2,1.8844415E-2,3.594771E-2,-5.756219E-2,-7.4679204E-3,6.779878E-2,9.484357E-2,-1.0072315E-2,1.3408719E-1,1.02821514E-1,1.0765821E-1,6.9960184E-2,4.4307806E-2,9.129327E-2,2.762289E-2,-5.8921397E-2,6.606197E-2,8.355564E-3,-1.7271142E-2,3.5723917E-2,1.7190291E-1,5.4991696E-2,-5.1002525E-2,-1.14041194E-1,-5.881321E-3,-5.3284924E-2,-8.2351595E-2,-1.4768603E-1,-6.81072E-3,-9.637845E-2,-1.479262E-1,-1.8109664E-1,-7.3924534E-2,6.3147075E-2,-1.2368714E-1,4.3709718E-2,-1.5454265E-1,-8.001426E-2,-1.5655714E-1,-1.9276145E-1],"categories":[],"categories_nodes":[],"categories_segments":[],"categories_sizes":[],"default_left":[0,0,0,0,0,0,0,0,0,0,0,0,0,0,0,0,0,0,0,0,0,0,0,0,0,0,0,0,0,0,0,0,0,0,0,0,0,0,0,0,0,0,0,0,0,0,0,0,0,0,0,0,0,0,0,0,0,0,0,0,0,0,0,0,0,0,0,0,0,0,0,0,0,0,0,0,0,0,0,0,0,0,0,0,0,0,0,0,0,0,0,0,0,0,0,0,0,0,0,0,0,0,0,0,0,0,0,0,0,0,0,0,0,0,0,0,0,0,0,0,0,0,0,0,0,0,0],"id":6,"left_children":[1,3,5,7,9,11,13,15,17,19,21,23,25,27,29,31,33,35,37,39,41,43,45,47,49,51,53,55,57,59,61,63,65,67,69,71,73,75,77,79,81,83,85,87,89,91,93,95,97,99,101,103,105,107,109,111,113,115,117,119,121,123,125,-1,-1,-1,-1,-1,-1,-1,-1,-1,-1,-1,-1,-1,-1,-1,-1,-1,-1,-1,-1,-1,-1,-1,-1,-1,-1,-1,-1,-1,-1,-1,-1,-1,-1,-1,-1,-1,-1,-1,-1,-1,-1,-1,-1,-1,-1,-1,-1,-1,-1,-1,-1,-1,-1,-1,-1,-1,-1,-1,-1,-1,-1,-1,-1],"loss_changes":[1.0017496E4,5.11566E3,4.7021665E3,1.0142656E3,2.1357988E3,8.375703E2,5.2318384E2,3.1163477E2,5.92584E2,6.074346E2,7.2506616E2,1.20875244E2,1.7296979E2,4.4333716E2,3.0642334E1,1.1078711E2,1.213584E2,2.121914E2,2.921504E2,5.617881E2,4.7002197E1,1.5168433E2,6.326901E2,5.539502E1,8.754047E1,1.615209E2,2.6540726E1,3.8173145E2,3.39422E1,5.926384E0,1.4814209E1,3.1477344E2,1.8670996E2,2.9897852E2,1.8680463E2,2.8193748E1,1.5127344E2,1.8842871E2,4.249807E2,8.9247314E1,5.162251E2,2.8625488E0,4.091211E1,1.0777173E2,8.5182335E1,2.4982501E2,1.8826061E3,2.5428833E1,2.7817688E1,7.593359E1,1.1600229E1,5.2828247E1,1.8526726E2,2.7976713E0,1.9369919E1,3.340171E2,4.118091E1,7.2736855E0,8.146973E0,2.324789E0,2.765152E0,9.344696E0,1.0068359E1,0E0,0E0,0E0,0E0,0E0,0E0,0E0,0E0,0E0,0E0,0E0,0E0,0E0,0E0,0E0,0E0,0E0,0E0,0E0,0E0,0E0,0E0,0E0,0E0,0E0,0E0,0E0,0E0,0E0,0E0,0E0,0E0,0E0,0E0,0E0,0E0,0E0,0E0,0E0,0E0,0E0,0E0,0E0,0E0,0E0,0E0,0E0,0E0,0E0,0E0,0E0,0E0,0E0,0E0,0E0,0E0,0E0,0E0,0E0,0E0,0E0,0E0,0E0,0E0],"parents":[2147483647,0,0,1,1,2,2,3,3,4,4,5,5,6,6,7,7,8,8,9,9,10,10,11,11,12,12,13,13,14,14,15,15,16,16,17,17,18,18,19,19,20,20,21,21,22,22,23,23,24,24,25,25,26,26,27,27,28,28,29,29,30,30,31,31,32,32,33,33,34,34,35,35,36,36,37,37,38,38,39,39,40,40,41,41,42,42,43,43,44,44,45,45,46,46,47,47,48,48,49,49,50,50,51,51,52,52,53,53,54,54,55,55,56,56,57,57,58,58,59,59,60,60,61,61,62,62],"right_children":[2,4,6,8,10,12,14,16,18,20,22,24,26,28,30,32,34,36,38,40,42,44,46,48,50,52,54,56,58,60,62,64,66,68,70,72,74,76,78,80,82,84,86,88,90,92,94,96,98,100,102,104,106,108,110,112,114,116,118,120,122,124,126,-1,-1,-1,-1,-1,-1,-1,-1,-1,-1,-1,-1,-1,-1,-1,-1,-1,-1,-1,-1,-1,-1,-1,-1,-1,-1,-1,-1,-1,-1,-1,-1,-1,-1,-1,-1,-1,-1,-1,-1,-1,-1,-1,-1,-1,-1,-1,-1,-1,-1,-1,-1,-1,-1,-1,-1,-1,-1,-1,-1,-1,-1,-1,-1],"split_conditions":[1E0,1.3E3,1.236E3,6.79E2,7.19E2,8.42E2,1E0,1.026E3,8.05E2,1E0,9E0,7.2E2,1E0,1E0,6E0,4E0,4E0,5E2,1.8E1,6E0,6E0,1E0,3E0,8.46E2,1E0,1E1,3.52E2,1E0,6E0,8.61E2,1.347E3,3E0,1.6E1,3E0,2.6E1,1.7E1,1.1E1,2E0,4E0,1E0,3E0,1E0,3E0,1E0,1E0,1E0,4E0,1E1,1E1,3E0,9E0,1.196E3,3E0,6E0,4E0,1E1,9E0,1.336E3,1.941E3,1E0,1E0,3E0,4E0,1.24657705E-1,1.6482653E-1,1.4034621E-1,8.9432865E-2,9.441496E-2,1.4806792E-1,9.673098E-2,6.895262E-3,6.0929187E-2,1.6539845E-3,1.3857195E-1,1.0632077E-1,6.1302237E-2,9.988281E-2,7.534069E-2,1.0952575E-2,1.124467E-1,3.7208583E-2,4.5791876E-2,8.093789E-2,1.6768214E-1,-1.4556718E-1,1.0780738E-1,1.4032634E-1,7.5436324E-2,1.8844415E-2,3.594771E-2,-5.756219E-2,-7.4679204E-3,6.779878E-2,9.484357E-2,-1.0072315E-2,1.3408719E-1,1.02821514E-1,1.0765821E-1,6.9960184E-2,4.4307806E-2,9.129327E-2,2.762289E-2,-5.8921397E-2,6.606197E-2,8.355564E-3,-1.7271142E-2,3.5723917E-2,1.7190291E-1,5.4991696E-2,-5.1002525E-2,-1.14041194E-1,-5.881321E-3,-5.3284924E-2,-8.2351595E-2,-1.4768603E-1,-6.81072E-3,-9.637845E-2,-1.479262E-1,-1.8109664E-1,-7.3924534E-2,6.3147075E-2,-1.2368714E-1,4.3709718E-2,-1.5454265E-1,-8.001426E-2,-1.5655714E-1,-1.9276145E-1],"split_indices":[4,763,763,762,762,763,23,763,763,10,2,763,23,49,2,0,0,763,2,2,2,8,0,762,23,2,762,28,2,762,763,0,2,0,2,2,2,0,0,8,0,412,0,13,23,7,0,2,2,0,2,762,0,2,0,2,2,763,763,439,411,0,0,0,0,0,0,0,0,0,0,0,0,0,0,0,0,0,0,0,0,0,0,0,0,0,0,0,0,0,0,0,0,0,0,0,0,0,0,0,0,0,0,0,0,0,0,0,0,0,0,0,0,0,0,0,0,0,0,0,0,0,0,0,0,0,0],"split_type":[0,0,0,0,0,0,0,0,0,0,0,0,0,0,0,0,0,0,0,0,0,0,0,0,0,0,0,0,0,0,0,0,0,0,0,0,0,0,0,0,0,0,0,0,0,0,0,0,0,0,0,0,0,0,0,0,0,0,0,0,0,0,0,0,0,0,0,0,0,0,0,0,0,0,0,0,0,0,0,0,0,0,0,0,0,0,0,0,0,0,0,0,0,0,0,0,0,0,0,0,0,0,0,0,0,0,0,0,0,0,0,0,0,0,0,0,0,0,0,0,0,0,0,0,0,0,0],"sum_hessian":[8.4838956E5,7.005784E5,1.4781122E5,3.335508E5,3.6702756E5,6.9522234E4,7.8288984E4,1.610292E5,1.725216E5,1.9637534E5,1.7065222E5,3.3639387E4,3.5882848E4,7.297761E4,5.3113745E3,1.0536829E5,5.566092E4,6.2828953E4,1.0969263E5,1.7975208E5,1.6623258E4,4.4243574E4,1.2640865E5,2.0486182E4,1.3153203E4,3.350899E4,2.3738591E3,6.870304E4,4.2745713E3,8.6146484E2,4.4499097E3,7.941175E4,2.5956541E4,4.15454E4,1.41155205E4,2.9076958E3,5.9921258E4,6.0799887E4,4.8892746E4,2.9275207E4,1.5047688E5,2.6269937E3,1.3996265E4,3.7312117E4,6.9314556E3,6.470365E4,6.1705004E4,1.1569E4,8.917182E3,1.2397121E4,7.560818E2,9.746653E3,2.3762334E4,1.1568573E2,2.2581733E3,6.4260293E4,4.442742E3,7.062257E2,3.5683457E3,4.117141E2,4.497507E2,6.159417E2,3.8339678E3,5.3174145E4,2.6237604E4,1.3203263E4,1.2753277E4,2.733005E4,1.421535E4,1.1574955E4,2.5405657E3,1.5734188E3,1.334277E3,1.9350877E4,4.057038E4,1.5196445E4,4.560344E4,3.65519E4,1.2340848E4,2.7778578E4,1.4966295E3,7.603675E4,7.4440125E4,2.6250793E3,1.9142087E0,7.2091587E3,6.7871064E3,3.3986406E4,3.3257114E3,5.9027124E3,1.0287433E3,6.0456867E4,4.2467817E3,2.940958E4,3.2295424E4,3.287583E3,8.281417E3,2.425159E3,6.492023E3,6.359962E3,6.0371597E3,1.8347086E2,5.7261096E2,8.008776E3,1.7378776E3,1.1572749E4,1.2189585E4,2.2613894E1,9.307183E1,1.6610421E3,5.971313E2,1.8989729E4,4.5270566E4,1.1908094E3,3.2519329E3,9.4316444E1,6.1190924E2,2.6373748E3,9.309711E2,4.0098376E2,1.0730355E1,4.411494E2,8.601299E0,2.872245E2,3.2871722E2,2.8899304E3,9.440373E2],"tree_param":{"num_deleted":"0","num_feature":"764","num_nodes":"127","size_leaf_vector":"1"}},{"base_weights":[-5.2761186E-2,-1.0188609E-1,1.4200749E-1,-1.8145446E-1,-5.997699E-2,-2.4894107E-2,1.7020068E-1,-2.2356342E-1,-8.035872E-2,-1.2844244E-1,-1.4242345E-2,-1.146792E-1,2.2703819E-2,1.6186571E-1,3.2051396E-1,-2.618344E-1,-1.7875221E-1,-1.3683453E-1,-3.1442977E-2,-1.1478414E-1,-2.6623026E-1,-4.47463E-3,-2.2727661E-1,-1.2788847E-1,1.0818819E-1,-7.2557196E-2,5.7034824E-2,1.5342328E-1,3.017989E-1,3.6862847E-1,2.4580258E-1,-3.0378613E-1,-2.2737306E-1,-2.18896E-1,-1.3127246E-1,-1.5037182E-1,1.719115E-1,-9.342939E-2,1.347626E-2,-1.0099654E-1,-2.4393266E-1,-3.5339308E-1,-2.5038472E-1,9.299247E-3,-1.4029579E-1,-2.3795868E-1,1.2837046E-1,-1.6482015E-1,-6.792227E-2,2.7876774E-2,3.6760172E-1,-8.7666E-2,2.5302607E-1,4.100487E-2,2.4969047E-1,1.4569917E-1,3.2204774E-1,3.2291523E-1,1.14745975E-1,3.7729266E-1,1.2996218E-1,4.883395E-1,2.0803139E-1,-9.616538E-2,-6.0488544E-2,-7.880946E-2,-5.658753E-2,-7.277713E-2,-4.532832E-2,-3.451477E-2,-9.3900524E-2,-5.4055173E-2,-2.0778641E-2,3.0045504E-2,1.2441394E-1,-2.4503026E-2,-1.0703703E-1,-4.2129788E-3,2.883375E-2,-2.103931E-2,-5.5237878E-2,-7.797131E-2,3.1798296E-3,-1.07197635E-1,-2.4421986E-3,-8.769661E-2,-6.384091E-2,4.386806E-3,-8.65047E-2,-5.5574626E-2,4.6930563E-2,-7.655189E-2,-8.652143E-3,1.8772116E-1,3.2572113E-2,-5.0849248E-2,8.954975E-2,-4.8434767E-3,-3.7652984E-2,-2.3829026E-2,7.583064E-2,1.5495484E-1,5.546682E-2,-2.8930908E-2,1.2387911E-1,4.666905E-2,1.7174791E-1,8.681997E-3,1.03392296E-1,5.6698803E-2,1.3051566E-1,4.0833224E-2,8.381746E-2,1.03552684E-1,4.9472235E-2,9.78859E-2,-3.0186864E-2,4.4705823E-2,-8.09357E-2,1.0932636E-1,1.5225388E-1,6.0361445E-2,-4.0951956E-2,1.5089889E-1,-7.5251E-2,7.232363E-2,1.5381419E-2],"categories":[],"categories_nodes":[],"categories_segments":[],"categories_sizes":[],"default_left":[0,0,0,0,0,0,0,0,0,0,0,0,0,0,0,0,0,0,0,0,0,0,0,0,0,0,0,0,0,0,0,0,0,0,0,0,0,0,0,0,0,0,0,0,0,0,0,0,0,0,0,0,0,0,0,0,0,0,0,0,0,0,0,0,0,0,0,0,0,0,0,0,0,0,0,0,0,0,0,0,0,0,0,0,0,0,0,0,0,0,0,0,0,0,0,0,0,0,0,0,0,0,0,0,0,0,0,0,0,0,0,0,0,0,0,0,0,0,0,0,0,0,0,0,0,0,0],"id":7,"left_children":[1,3,5,7,9,11,13,15,17,19,21,23,25,27,29,31,33,35,37,39,41,43,45,47,49,51,53,55,57,59,61,63,65,67,69,71,73,75,77,79,81,83,85,87,89,91,93,95,97,99,101,103,105,107,109,111,113,115,117,119,121,123,125,-1,-1,-1,-1,-1,-1,-1,-1,-1,-1,-1,-1,-1,-1,-1,-1,-1,-1,-1,-1,-1,-1,-1,-1,-1,-1,-1,-1,-1,-1,-1,-1,-1,-1,-1,-1,-1,-1,-1,-1,-1,-1,-1,-1,-1,-1,-1,-1,-1,-1,-1,-1,-1,-1,-1,-1,-1,-1,-1,-1,-1,-1,-1,-1],"loss_changes":[6.567063E3,1.8277407E3,6.5051807E2,8.049668E2,1.1241678E3,8.538371E1,1.481211E2,2.2888672E2,1.5360611E2,2.7055273E2,4.4788217E2,2.0391777E1,4.2708298E1,1.3233472E2,2.2241394E1,1.04018555E2,1.171814E2,1.0789084E2,8.296988E1,2.3290784E2,1.7819336E1,3.8501706E2,3.5878967E1,1.4462006E1,8.07024E0,1.7040792E1,2.9634302E1,1.376018E2,2.5142944E1,7.7609863E0,2.2219986E1,5.5541504E1,5.406079E1,5.3492554E1,8.303244E1,5.9771484E1,1.8854088E1,3.8724052E1,3.929427E1,3.0326135E2,5.1296936E1,2.7016754E0,1.7235107E1,2.9608002E2,2.5279364E2,3.29718E1,2.6477118E0,8.8136215E0,7.4300365E0,7.1933646E0,2.3969898E0,1.4558754E1,4.696047E0,3.2457985E1,8.211018E0,1.2950537E2,1.6763031E1,8.210693E0,8.583069E0,5.9229126E0,2.5681245E0,3.6752396E0,1.0918625E1,0E0,0E0,0E0,0E0,0E0,0E0,0E0,0E0,0E0,0E0,0E0,0E0,0E0,0E0,0E0,0E0,0E0,0E0,0E0,0E0,0E0,0E0,0E0,0E0,0E0,0E0,0E0,0E0,0E0,0E0,0E0,0E0,0E0,0E0,0E0,0E0,0E0,0E0,0E0,0E0,0E0,0E0,0E0,0E0,0E0,0E0,0E0,0E0,0E0,0E0,0E0,0E0,0E0,0E0,0E0,0E0,0E0,0E0,0E0,0E0,0E0,0E0,0E0,0E0],"parents":[2147483647,0,0,1,1,2,2,3,3,4,4,5,5,6,6,7,7,8,8,9,9,10,10,11,11,12,12,13,13,14,14,15,15,16,16,17,17,18,18,19,19,20,20,21,21,22,22,23,23,24,24,25,25,26,26,27,27,28,28,29,29,30,30,31,31,32,32,33,33,34,34,35,35,36,36,37,37,38,38,39,39,40,40,41,41,42,42,43,43,44,44,45,45,46,46,47,47,48,48,49,49,50,50,51,51,52,52,53,53,54,54,55,55,56,56,57,57,58,58,59,59,60,60,61,61,62,62],"right_children":[2,4,6,8,10,12,14,16,18,20,22,24,26,28,30,32,34,36,38,40,42,44,46,48,50,52,54,56,58,60,62,64,66,68,70,72,74,76,78,80,82,84,86,88,90,92,94,96,98,100,102,104,106,108,110,112,114,116,118,120,122,124,126,-1,-1,-1,-1,-1,-1,-1,-1,-1,-1,-1,-1,-1,-1,-1,-1,-1,-1,-1,-1,-1,-1,-1,-1,-1,-1,-1,-1,-1,-1,-1,-1,-1,-1,-1,-1,-1,-1,-1,-1,-1,-1,-1,-1,-1,-1,-1,-1,-1,-1,-1,-1,-1,-1,-1,-1,-1,-1,-1,-1,-1,-1,-1,-1],"split_conditions":[1E0,1.104E3,7.51E2,1.055E3,5.81E2,5.81E2,1E0,5.75E2,8.05E2,1E0,1E0,1E0,1E1,1E0,1.635E3,8.05E2,8.3E2,1E0,1.44E3,1E0,6E0,1E0,1E0,5E0,6E0,1E0,1E0,1E0,2.12E3,1E0,5E0,1E0,1.7E1,4E0,1E0,4E0,4E0,1E0,4E0,1E0,1E0,1E0,4E0,1E0,1E0,1E0,1.15E3,1E0,3E0,7.15E2,3E0,1E0,8E0,1E0,7.1E2,1E0,2.054E3,1E0,2.9E1,1.514E3,1.44E3,1E0,2.7E1,-9.616538E-2,-6.0488544E-2,-7.880946E-2,-5.658753E-2,-7.277713E-2,-4.532832E-2,-3.451477E-2,-9.3900524E-2,-5.4055173E-2,-2.0778641E-2,3.0045504E-2,1.2441394E-1,-2.4503026E-2,-1.0703703E-1,-4.2129788E-3,2.883375E-2,-2.103931E-2,-5.5237878E-2,-7.797131E-2,3.1798296E-3,-1.07197635E-1,-2.4421986E-3,-8.769661E-2,-6.384091E-2,4.386806E-3,-8.65047E-2,-5.5574626E-2,4.6930563E-2,-7.655189E-2,-8.652143E-3,1.8772116E-1,3.2572113E-2,-5.0849248E-2,8.954975E-2,-4.8434767E-3,-3.7652984E-2,-2.3829026E-2,7.583064E-2,1.5495484E-1,5.546682E-2,-2.8930908E-2,1.2387911E-1,4.666905E-2,1.7174791E-1,8.681997E-3,1.03392296E-1,5.6698803E-2,1.3051566E-1,4.0833224E-2,8.381746E-2,1.03552684E-1,4.9472235E-2,9.78859E-2,-3.0186864E-2,4.4705823E-2,-8.09357E-2,1.0932636E-1,1.5225388E-1,6.0361445E-2,-4.0951956E-2,1.5089889E-1,-7.5251E-2,7.232363E-2,1.5381419E-2],"split_indices":[4,763,763,762,762,762,27,762,763,10,9,28,2,44,763,763,763,391,762,9,2,7,117,3,3,49,23,55,763,446,2,6,2,0,9,0,0,9,0,7,39,419,3,10,23,39,763,114,0,763,0,56,2,28,763,28,763,482,2,762,763,445,2,0,0,0,0,0,0,0,0,0,0,0,0,0,0,0,0,0,0,0,0,0,0,0,0,0,0,0,0,0,0,0,0,0,0,0,0,0,0,0,0,0,0,0,0,0,0,0,0,0,0,0,0,0,0,0,0,0,0,0,0,0,0,0,0],"split_type":[0,0,0,0,0,0,0,0,0,0,0,0,0,0,0,0,0,0,0,0,0,0,0,0,0,0,0,0,0,0,0,0,0,0,0,0,0,0,0,0,0,0,0,0,0,0,0,0,0,0,0,0,0,0,0,0,0,0,0,0,0,0,0,0,0,0,0,0,0,0,0,0,0,0,0,0,0,0,0,0,0,0,0,0,0,0,0,0,0,0,0,0,0,0,0,0,0,0,0,0,0,0,0,0,0,0,0,0,0,0,0,0,0,0,0,0,0,0,0,0,0,0,0,0,0,0,0],"sum_hessian":[6.863548E5,5.4811E5,1.3824481E5,1.8909398E5,3.5901603E5,1.9977805E4,1.18267016E5,1.3349055E5,5.560344E4,1.4377736E5,2.1523866E5,6.9210522E3,1.3056753E4,1.1205554E5,6.211477E3,7.1996836E4,6.149371E4,2.5806584E4,2.9796857E4,1.3081234E5,1.2965018E4,2.058035E5,9.435159E3,6.5341987E3,3.868535E2,3.4586484E3,9.5981045E3,1.0568166E5,6.3738784E3,3.775866E3,2.435611E3,3.2466158E4,3.953068E4,3.3319066E4,2.8174643E4,2.4723088E4,1.0834968E3,1.2519485E4,1.7277373E4,1.1819581E5,1.261653E4,1.9911023E3,1.0973916E4,1.8685511E5,1.8948393E4,9.160354E3,2.7480563E2,4.0426707E3,2.491528E3,2.9624646E2,9.060701E1,3.3059646E3,1.5268372E2,8.861956E3,7.3614825E2,1.0105457E5,4.627092E3,5.726671E3,6.472073E2,3.643034E3,1.3283209E2,3.2658835E2,2.1090227E3,2.7887412E4,4.578746E3,2.0675652E4,1.8855025E4,2.468863E4,8.630437E3,2.5867084E4,2.3075603E3,1.8077453E4,6.6456357E3,8.374127E2,2.460841E2,1.1985916E4,5.335689E2,1.2961698E4,4.315675E3,8.619429E4,3.2001521E4,1.1871576E4,7.449541E2,1.9686449E3,2.2457449E1,5.1832085E3,5.790707E3,1.8357286E5,3.2822507E3,1.6455812E4,2.4925803E3,8.463437E3,6.969172E2,9.347758E0,2.6545786E2,4.0028945E3,3.9776127E1,1.3126229E3,1.1789052E3,2.0099083E2,9.525564E1,4.8914078E1,4.169293E1,3.2498354E3,5.61292E1,1.1813132E2,3.4552395E1,8.52434E3,3.376165E2,5.5608466E2,1.8006358E2,9.429381E4,6.760753E3,4.0324067E3,5.946852E2,5.681678E3,4.4992653E1,5.948046E2,5.2402657E1,3.3187905E3,3.242436E2,1.0500346E2,2.7828627E1,3.2055182E2,6.0365505E0,1.7413763E3,3.676463E2],"tree_param":{"num_deleted":"0","num_feature":"764","num_nodes":"127","size_leaf_vector":"1"}},{"base_weights":[-2.511471E-1,-3.4837636E-1,-1.459308E-1,-3.9435896E-1,-2.8853685E-1,-1.9372673E-1,4.350048E-2,-3.9875704E-1,-2.0198038E-1,-3.872497E-1,-2.703251E-1,-2.0798184E-1,5.7831116E-2,-1.2652363E-1,1.0583475E-1,-4.3115774E-1,-3.719609E-1,-5.102465E-2,-2.5767013E-1,-3.9327863E-1,-2.3305808E-1,-2.8866276E-1,-1.9142585E-1,-3.3131912E-1,-1.8444264E-1,3.863569E-2,4.5363948E-1,-2.0349748E-1,-4.1234054E-2,2.0981832E-1,-1.4284203E-2,-4.178718E-1,-4.8809195E-1,-3.7737638E-1,-2.3008215E-1,-1.2535013E-1,1.6356947E-1,-3.549205E-1,-1.3858119E-1,-4.380035E-1,-3.7508935E-1,-2.403117E-1,2.3748495E-1,-2.9851148E-1,-8.185574E-2,-2.1251827E-1,8.2030274E-2,-3.1063125E-1,-4.4379768E-1,-1.2625009E-1,-2.4698205E-1,-5.880555E-2,1.0996158E-1,3.181678E-1,7.391452E-1,-3.6965975E-1,-1.8434305E-1,7.147188E-2,-1.5848976E-1,7.821244E-2,3.2655942E-1,-1.7512609E-1,1.13738246E-1,-7.36343E-2,-1.267224E-1,-1.3977335E-1,-1.5411702E-1,-1.1818064E-1,-9.8391E-2,-7.989017E-2,-3.618786E-2,3.429106E-2,-5.3596266E-2,-4.5445137E-2,9.9087715E-2,-1.0922732E-1,2.5372611E-2,-7.309467E-2,9.902391E-3,-1.3209316E-1,-3.1525105E-2,-1.1484362E-1,-8.643299E-2,-4.3624073E-2,-8.324932E-2,1.5710716E-1,-9.090312E-2,-9.569001E-2,-7.1495764E-2,1.6537929E-2,-4.0229063E-2,-4.436E-2,-8.372781E-2,-1.8516056E-2,5.9244126E-2,-8.988773E-2,-1.4581522E-1,-1.5245304E-1,-1.2507471E-1,-4.1796885E-2,7.407451E-2,-1.0552317E-1,-4.3930367E-2,-5.9983056E-2,-1.4422226E-3,4.498846E-2,-2.831868E-2,6.271987E-2,1.7741504E-1,1.7799304E-1,3.1833413E-1,-1.142274E-1,2.0352958E-1,-7.3743254E-2,-4.050465E-2,-7.0170057E-3,1.195295E-1,-6.8442024E-2,2.2215959E-2,-3.2771458E-3,5.1322754E-2,5.553589E-2,1.4197794E-1,-5.939874E-2,5.5640627E-2,1.953621E-3,1.2528592E-1],"categories":[],"categories_nodes":[],"categories_segments":[],"categories_sizes":[],"default_left":[0,0,0,0,0,0,0,0,0,0,0,0,0,0,0,0,0,0,0,0,0,0,0,0,0,0,0,0,0,0,0,0,0,0,0,0,0,0,0,0,0,0,0,0,0,0,0,0,0,0,0,0,0,0,0,0,0,0,0,0,0,0,0,0,0,0,0,0,0,0,0,0,0,0,0,0,0,0,0,0,0,0,0,0,0,0,0,0,0,0,0,0,0,0,0,0,0,0,0,0,0,0,0,0,0,0,0,0,0,0,0,0,0,0,0,0,0,0,0,0,0,0,0,0,0,0,0],"id":8,"left_children":[1,3,5,7,9,11,13,15,17,19,21,23,25,27,29,31,33,35,37,39,41,43,45,47,49,51,53,55,57,59,61,63,65,67,69,71,73,75,77,79,81,83,85,87,89,91,93,95,97,99,101,103,105,107,109,111,113,115,117,119,121,123,125,-1,-1,-1,-1,-1,-1,-1,-1,-1,-1,-1,-1,-1,-1,-1,-1,-1,-1,-1,-1,-1,-1,-1,-1,-1,-1,-1,-1,-1,-1,-1,-1,-1,-1,-1,-1,-1,-1,-1,-1,-1,-1,-1,-1,-1,-1,-1,-1,-1,-1,-1,-1,-1,-1,-1,-1,-1,-1,-1,-1,-1,-1,-1,-1],"loss_changes":[5.8722734E3,8.2078125E2,2.496124E3,1.426543E2,2.329502E2,7.894502E2,5.887112E2,1.4303125E2,3.1701294E1,1.8676514E1,1.582998E2,6.0480176E2,8.968717E1,9.782248E1,5.07682E2,5.6262695E1,6.927832E1,1.6256151E1,3.186473E1,1.5641357E1,2.658455E0,1.8085693E2,1.1908795E2,7.7555176E1,6.3667725E2,7.827685E1,2.0883514E1,2.4860565E1,9.344798E1,3.346917E2,3.8838284E2,4.724121E1,7.7871094E0,7.101172E1,1.3136322E1,9.685921E0,1.3827616E1,6.141922E0,2.236985E1,4.2633057E0,9.171875E0,2.6101723E0,2.026401E0,1.042959E2,2.890628E1,8.245111E1,2.455788E1,5.4305664E1,8.760925E0,4.4214648E2,8.881953E2,3.62775E1,5.316806E1,1.0966866E1,7.585243E0,9.663597E0,2.1266678E1,1.11845985E2,5.614662E1,8.478288E1,2.3945703E2,6.8972595E1,3.4220346E2,0E0,0E0,0E0,0E0,0E0,0E0,0E0,0E0,0E0,0E0,0E0,0E0,0E0,0E0,0E0,0E0,0E0,0E0,0E0,0E0,0E0,0E0,0E0,0E0,0E0,0E0,0E0,0E0,0E0,0E0,0E0,0E0,0E0,0E0,0E0,0E0,0E0,0E0,0E0,0E0,0E0,0E0,0E0,0E0,0E0,0E0,0E0,0E0,0E0,0E0,0E0,0E0,0E0,0E0,0E0,0E0,0E0,0E0,0E0,0E0,0E0,0E0,0E0,0E0],"parents":[2147483647,0,0,1,1,2,2,3,3,4,4,5,5,6,6,7,7,8,8,9,9,10,10,11,11,12,12,13,13,14,14,15,15,16,16,17,17,18,18,19,19,20,20,21,21,22,22,23,23,24,24,25,25,26,26,27,27,28,28,29,29,30,30,31,31,32,32,33,33,34,34,35,35,36,36,37,37,38,38,39,39,40,40,41,41,42,42,43,43,44,44,45,45,46,46,47,47,48,48,49,49,50,50,51,51,52,52,53,53,54,54,55,55,56,56,57,57,58,58,59,59,60,60,61,61,62,62],"right_children":[2,4,6,8,10,12,14,16,18,20,22,24,26,28,30,32,34,36,38,40,42,44,46,48,50,52,54,56,58,60,62,64,66,68,70,72,74,76,78,80,82,84,86,88,90,92,94,96,98,100,102,104,106,108,110,112,114,116,118,120,122,124,126,-1,-1,-1,-1,-1,-1,-1,-1,-1,-1,-1,-1,-1,-1,-1,-1,-1,-1,-1,-1,-1,-1,-1,-1,-1,-1,-1,-1,-1,-1,-1,-1,-1,-1,-1,-1,-1,-1,-1,-1,-1,-1,-1,-1,-1,-1,-1,-1,-1,-1,-1,-1,-1,-1,-1,-1,-1,-1,-1,-1,-1,-1,-1,-1],"split_conditions":[1.405E3,1.026E3,1E0,1E0,6E0,1E0,1E1,7.41E2,2E0,1E0,1E0,6E0,1E0,6E0,3E0,1E0,1E0,6E0,1.8E1,4E0,1E0,1E0,1E0,1E0,3E0,4E0,2.3E1,3E0,8E0,1.753E3,4E0,5E2,3E0,4E0,2.4E1,2E0,8.61E2,1E0,4E0,1E0,1E0,2E0,4E0,4E0,2E0,3E0,1.205E3,1E0,4E0,1E0,4E0,9.25E2,2.343E3,1.932E3,1.93E3,1E0,1.73E3,4E0,4E0,2E0,2E0,1E0,2.7E1,-7.36343E-2,-1.267224E-1,-1.3977335E-1,-1.5411702E-1,-1.1818064E-1,-9.8391E-2,-7.989017E-2,-3.618786E-2,3.429106E-2,-5.3596266E-2,-4.5445137E-2,9.9087715E-2,-1.0922732E-1,2.5372611E-2,-7.309467E-2,9.902391E-3,-1.3209316E-1,-3.1525105E-2,-1.1484362E-1,-8.643299E-2,-4.3624073E-2,-8.324932E-2,1.5710716E-1,-9.090312E-2,-9.569001E-2,-7.1495764E-2,1.6537929E-2,-4.0229063E-2,-4.436E-2,-8.372781E-2,-1.8516056E-2,5.9244126E-2,-8.988773E-2,-1.4581522E-1,-1.5245304E-1,-1.2507471E-1,-4.1796885E-2,7.407451E-2,-1.0552317E-1,-4.3930367E-2,-5.9983056E-2,-1.4422226E-3,4.498846E-2,-2.831868E-2,6.271987E-2,1.7741504E-1,1.7799304E-1,3.1833413E-1,-1.142274E-1,2.0352958E-1,-7.3743254E-2,-4.050465E-2,-7.0170057E-3,1.195295E-1,-6.8442024E-2,2.2215959E-2,-3.2771458E-3,5.1322754E-2,5.553589E-2,1.4197794E-1,-5.939874E-2,5.5640627E-2,1.953621E-3,1.2528592E-1],"split_indices":[763,763,4,16,2,13,2,763,0,13,4,2,39,2,0,4,13,3,2,3,45,13,23,6,0,3,2,3,2,763,0,763,0,0,2,3,762,39,0,70,8,0,2,0,0,0,763,10,3,16,0,762,762,763,763,51,763,0,3,0,0,49,2,0,0,0,0,0,0,0,0,0,0,0,0,0,0,0,0,0,0,0,0,0,0,0,0,0,0,0,0,0,0,0,0,0,0,0,0,0,0,0,0,0,0,0,0,0,0,0,0,0,0,0,0,0,0,0,0,0,0,0,0,0,0,0,0],"split_type":[0,0,0,0,0,0,0,0,0,0,0,0,0,0,0,0,0,0,0,0,0,0,0,0,0,0,0,0,0,0,0,0,0,0,0,0,0,0,0,0,0,0,0,0,0,0,0,0,0,0,0,0,0,0,0,0,0,0,0,0,0,0,0,0,0,0,0,0,0,0,0,0,0,0,0,0,0,0,0,0,0,0,0,0,0,0,0,0,0,0,0,0,0,0,0,0,0,0,0,0,0,0,0,0,0,0,0,0,0,0,0,0,0,0,0,0,0,0,0,0,0,0,0,0,0,0,0],"sum_hessian":[5.740237E5,2.9833403E5,2.7568966E5,1.6869658E5,1.2963746E5,2.2014439E5,5.5545277E4,1.6492505E5,3.771527E3,2.0188705E4,1.0944876E5,2.0833858E5,1.1805806E4,1.4900734E4,4.0644543E4,7.464843E4,9.027661E4,1.01692096E3,2.7546062E3,1.9427537E4,7.611686E2,8.880594E4,2.064282E4,3.3387344E4,1.7495123E5,1.1260791E4,5.450144E2,7.831457E3,7.069278E3,2.1785076E4,1.8859469E4,6.0531414E4,1.4117018E4,8.6955875E4,3.320739E3,7.556237E2,2.6129727E2,1.5152462E3,1.2393599E3,5.610071E3,1.3817466E4,7.5009485E2,1.1073719E1,8.476858E4,4.0373547E3,1.9164809E4,1.4780117E3,2.8203676E4,5.1836665E3,9.062669E4,8.4324555E4,4.7592114E3,6.5015796E3,3.710613E2,1.7395312E2,8.075722E2,7.023885E3,3.6047708E3,3.464507E3,1.0241352E4,1.1543725E4,8.358208E3,1.050126E4,1.5530706E3,5.8978344E4,7.578204E3,6.5388135E3,6.5122457E4,2.1833414E4,2.494041E3,8.2669806E2,1.3727856E2,6.1834515E2,9.045587E1,1.708414E2,1.4844432E3,3.0802917E1,7.684199E2,4.7093994E2,5.571142E3,3.8928703E1,1.2687562E4,1.1299039E3,2.1255885E2,5.37536E2,7.2603025E0,3.813417E0,6.32649E4,2.1503684E4,1.1146256E3,2.9227292E3,9.724445E3,9.440363E3,6.585262E2,8.1948553E2,2.6541234E4,1.662441E3,1.5216344E3,3.6620322E3,8.755988E4,3.0668042E3,4.1295605E4,4.302895E4,1.316223E3,3.4429883E3,5.4375283E3,1.0640511E3,2.664333E2,1.0462803E2,1.21680786E2,5.227234E1,7.997405E2,7.831729E0,3.1253535E3,3.898531E3,2.7948271E3,8.099437E2,2.666013E3,7.984942E2,5.2259917E3,5.0153604E3,5.87839E3,5.665334E3,7.8601514E3,4.9805695E2,7.763049E3,2.7382112E3],"tree_param":{"num_deleted":"0","num_feature":"764","num_nodes":"127","size_leaf_vector":"1"}},{"base_weights":[1.6238034E-1,2.0052843E-1,-1.8345054E-2,2.5799987E-1,1.1523618E-1,1.2432959E-1,-1.6292141E-1,3.168218E-1,2.1966486E-1,1.918932E-1,5.8952652E-2,2.1058549E-1,3.8263857E-2,-1.429395E-1,-4.4815585E-1,3.5502237E-1,2.7431136E-1,2.9103664E-1,1.8226959E-1,2.0105061E-1,-1.1207473E-1,1.14721745E-1,-1.5640052E-3,2.7917725E-1,1.6783138E-1,1.7499922E-1,1.1584395E-2,-1.2590344E-1,-4.2746824E-1,-2.7049428E-1,-4.7650912E-1,3.82395E-1,3.1371313E-1,2.6038405E-1,4.042363E-1,3.6062434E-1,2.626174E-1,1.701418E-1,3.909242E-1,2.4749342E-1,1.4958407E-1,-4.9271464E-2,-3.8087758E-1,4.246066E-2,1.8880479E-1,3.9083984E-2,-1.1874653E-1,2.9287353E-1,7.463327E-2,2.2219849E-1,9.445398E-2,2.0682184E-1,2.5750969E-2,2.6065469E-2,-2.4274614E-1,-1.09575376E-1,-3.6619902E-1,-2.554319E-1,-4.623689E-1,-3.0990338E-1,6.880033E-2,-4.4416076E-1,-5.740704E-1,1.207756E-1,9.630603E-2,1.1569204E-1,8.551671E-2,8.623667E-2,5.3340606E-2,9.1374665E-2,1.3065293E-1,5.671326E-2,1.1013144E-1,9.002579E-2,4.672434E-2,7.292818E-2,4.2028975E-2,1.2066213E-1,-3.8853616E-2,5.8785427E-2,8.967769E-2,5.762957E-2,2.8581924E-3,3.561952E-2,-3.7454396E-2,-1.2705635E-1,-1.8706828E-2,9.6563846E-2,2.0840617E-3,6.6687204E-2,-2.4341752E-3,-1.2253405E-2,6.540282E-2,-5.192738E-2,3.071106E-2,9.040752E-2,1.887133E-2,-5.753808E-2,3.6536146E-2,7.004067E-2,-4.842829E-3,3.1042818E-3,5.3597115E-2,9.080042E-2,4.9812216E-2,-1.05677275E-2,1.21411294E-1,1.3127426E-2,-6.532299E-2,-5.8586095E-2,-1.1840202E-1,-2.7627397E-2,-1.12718835E-1,-5.2505456E-2,-1.2207195E-1,-5.247955E-2,-1.2769447E-1,-1.5521699E-1,-1.2330053E-1,-6.9791116E-2,-1.22566506E-1,-8.606344E-2,8.7815836E-2,-1.5565605E-1,-9.456127E-2,-1.492122E-1,-1.8264842E-1],"categories":[],"categories_nodes":[],"categories_segments":[],"categories_sizes":[],"default_left":[0,0,0,0,0,0,0,0,0,0,0,0,0,0,0,0,0,0,0,0,0,0,0,0,0,0,0,0,0,0,0,0,0,0,0,0,0,0,0,0,0,0,0,0,0,0,0,0,0,0,0,0,0,0,0,0,0,0,0,0,0,0,0,0,0,0,0,0,0,0,0,0,0,0,0,0,0,0,0,0,0,0,0,0,0,0,0,0,0,0,0,0,0,0,0,0,0,0,0,0,0,0,0,0,0,0,0,0,0,0,0,0,0,0,0,0,0,0,0,0,0,0,0,0,0,0,0],"id":9,"left_children":[1,3,5,7,9,11,13,15,17,19,21,23,25,27,29,31,33,35,37,39,41,43,45,47,49,51,53,55,57,59,61,63,65,67,69,71,73,75,77,79,81,83,85,87,89,91,93,95,97,99,101,103,105,107,109,111,113,115,117,119,121,123,125,-1,-1,-1,-1,-1,-1,-1,-1,-1,-1,-1,-1,-1,-1,-1,-1,-1,-1,-1,-1,-1,-1,-1,-1,-1,-1,-1,-1,-1,-1,-1,-1,-1,-1,-1,-1,-1,-1,-1,-1,-1,-1,-1,-1,-1,-1,-1,-1,-1,-1,-1,-1,-1,-1,-1,-1,-1,-1,-1,-1,-1,-1,-1,-1],"loss_changes":[5.743492E3,3.3718457E3,2.9951128E3,9.2662305E2,1.1947476E3,5.425227E2,4.1098474E2,2.632207E2,6.640205E2,3.263623E2,5.3890753E2,1.0699231E2,1.3345045E2,3.2664893E2,2.3652405E1,9.644629E1,1.3877393E2,1.6907617E2,4.1309326E2,2.7199707E2,5.7873524E1,4.4484583E2,3.6477548E2,3.9237183E1,8.9688416E1,2.8360443E1,1.1274493E2,2.4947308E2,2.27406E1,8.740227E0,1.2589783E1,6.3515625E1,7.005737E1,1.5492676E2,2.3019653E1,2.750879E1,2.4317676E2,3.3817822E2,5.2711304E1,1.5852808E2,3.2146484E2,3.532499E1,8.793358E0,4.174469E2,2.7056506E2,8.1315845E2,2.3701907E2,2.560852E1,1.1088979E1,3.469934E1,6.778868E1,1.9190918E1,2.429482E1,1.2494295E2,1.18136215E1,2.7707245E2,3.1415222E1,8.754311E0,8.729126E0,4.359421E0,5.553383E0,2.9320007E1,2.3897705E0,0E0,0E0,0E0,0E0,0E0,0E0,0E0,0E0,0E0,0E0,0E0,0E0,0E0,0E0,0E0,0E0,0E0,0E0,0E0,0E0,0E0,0E0,0E0,0E0,0E0,0E0,0E0,0E0,0E0,0E0,0E0,0E0,0E0,0E0,0E0,0E0,0E0,0E0,0E0,0E0,0E0,0E0,0E0,0E0,0E0,0E0,0E0,0E0,0E0,0E0,0E0,0E0,0E0,0E0,0E0,0E0,0E0,0E0,0E0,0E0,0E0,0E0,0E0,0E0],"parents":[2147483647,0,0,1,1,2,2,3,3,4,4,5,5,6,6,7,7,8,8,9,9,10,10,11,11,12,12,13,13,14,14,15,15,16,16,17,17,18,18,19,19,20,20,21,21,22,22,23,23,24,24,25,25,26,26,27,27,28,28,29,29,30,30,31,31,32,32,33,33,34,34,35,35,36,36,37,37,38,38,39,39,40,40,41,41,42,42,43,43,44,44,45,45,46,46,47,47,48,48,49,49,50,50,51,51,52,52,53,53,54,54,55,55,56,56,57,57,58,58,59,59,60,60,61,61,62,62],"right_children":[2,4,6,8,10,12,14,16,18,20,22,24,26,28,30,32,34,36,38,40,42,44,46,48,50,52,54,56,58,60,62,64,66,68,70,72,74,76,78,80,82,84,86,88,90,92,94,96,98,100,102,104,106,108,110,112,114,116,118,120,122,124,126,-1,-1,-1,-1,-1,-1,-1,-1,-1,-1,-1,-1,-1,-1,-1,-1,-1,-1,-1,-1,-1,-1,-1,-1,-1,-1,-1,-1,-1,-1,-1,-1,-1,-1,-1,-1,-1,-1,-1,-1,-1,-1,-1,-1,-1,-1,-1,-1,-1,-1,-1,-1,-1,-1,-1,-1,-1,-1,-1,-1,-1,-1,-1,-1],"split_conditions":[1E0,1.503E3,1.305E3,5.81E2,5.81E2,9.02E2,1E0,1.036E3,8.39E2,1E0,1.7E1,5.88E2,6E0,1E0,5E0,5E0,1E0,1E1,1E0,1.7E1,1E0,3E0,4E0,1E0,7.2E2,1.189E3,1E0,1E0,6E0,6E0,4E0,4E0,1.1E1,4E0,2E0,5E2,4E0,1E1,1E0,3E0,4E0,1.719E3,2.054E3,3E0,1E0,3E0,1E0,1E0,2E0,1E0,3E0,4E0,2.343E3,1E0,4E0,1E0,6E0,9.12E2,3E0,8.88E2,1.635E3,3E0,1.4E1,1.207756E-1,9.630603E-2,1.1569204E-1,8.551671E-2,8.623667E-2,5.3340606E-2,9.1374665E-2,1.3065293E-1,5.671326E-2,1.1013144E-1,9.002579E-2,4.672434E-2,7.292818E-2,4.2028975E-2,1.2066213E-1,-3.8853616E-2,5.8785427E-2,8.967769E-2,5.762957E-2,2.8581924E-3,3.561952E-2,-3.7454396E-2,-1.2705635E-1,-1.8706828E-2,9.6563846E-2,2.0840617E-3,6.6687204E-2,-2.4341752E-3,-1.2253405E-2,6.540282E-2,-5.192738E-2,3.071106E-2,9.040752E-2,1.887133E-2,-5.753808E-2,3.6536146E-2,7.004067E-2,-4.842829E-3,3.1042818E-3,5.3597115E-2,9.080042E-2,4.9812216E-2,-1.05677275E-2,1.21411294E-1,1.3127426E-2,-6.532299E-2,-5.8586095E-2,-1.1840202E-1,-2.7627397E-2,-1.12718835E-1,-5.2505456E-2,-1.2207195E-1,-5.247955E-2,-1.2769447E-1,-1.5521699E-1,-1.2330053E-1,-6.9791116E-2,-1.22566506E-1,-8.606344E-2,8.7815836E-2,-1.5565605E-1,-9.456127E-2,-1.492122E-1,-1.8264842E-1],"split_indices":[4,763,763,762,762,763,23,763,763,23,2,762,2,49,2,3,10,2,9,2,8,0,0,28,763,762,28,28,2,3,0,0,2,0,0,763,0,2,117,0,0,763,763,2,8,0,5,44,3,49,0,3,762,23,0,27,2,762,0,762,763,0,2,0,0,0,0,0,0,0,0,0,0,0,0,0,0,0,0,0,0,0,0,0,0,0,0,0,0,0,0,0,0,0,0,0,0,0,0,0,0,0,0,0,0,0,0,0,0,0,0,0,0,0,0,0,0,0,0,0,0,0,0,0,0,0,0],"split_type":[0,0,0,0,0,0,0,0,0,0,0,0,0,0,0,0,0,0,0,0,0,0,0,0,0,0,0,0,0,0,0,0,0,0,0,0,0,0,0,0,0,0,0,0,0,0,0,0,0,0,0,0,0,0,0,0,0,0,0,0,0,0,0,0,0,0,0,0,0,0,0,0,0,0,0,0,0,0,0,0,0,0,0,0,0,0,0,0,0,0,0,0,0,0,0,0,0,0,0,0,0,0,0,0,0,0,0,0,0,0,0,0,0,0,0,0,0,0,0,0,0,0,0,0,0,0,0],"sum_hessian":[8.3307344E5,6.8787456E5,1.4519884E5,4.109602E5,2.769144E5,7.308013E4,7.211872E4,1.621488E5,2.488114E5,1.17237234E5,1.5967716E5,3.649902E4,3.658111E4,6.739865E4,4.7200703E3,8.539982E4,7.674898E4,8.5541695E4,1.632697E5,1.1380894E5,3.428293E3,8.309766E4,7.65795E4,1.4012613E4,2.2486408E4,5.9714043E3,3.0609705E4,6.359251E4,3.8061343E3,6.510616E2,4.0690088E3,5.1359438E4,3.404038E4,6.932109E4,7.4278867E3,2.4801264E4,6.074043E4,1.5430286E5,8.96684E3,5.9822242E4,5.39867E4,2.7799639E3,6.483292E2,4.2066902E4,4.1030758E4,5.685756E4,1.9721945E4,1.3132808E4,8.79806E2,1.2915196E4,9.571211E3,4.9216313E3,1.0497732E3,2.8961588E4,1.6481176E3,5.9547703E4,4.0448064E3,6.4332153E2,3.1628127E3,5.833877E2,6.7673874E1,3.0599685E3,1.0090402E3,3.8641945E4,1.2717491E4,9.694872E3,2.4345508E4,5.2205086E4,1.7116006E4,1.7767974E3,5.6510894E3,9.0373315E2,2.3897531E4,4.4971566E4,1.5768864E4,4.5009414E4,1.0929345E5,8.77679E3,1.9005049E2,2.9881637E4,2.9940605E4,4.141479E4,1.2571909E4,8.623741E2,1.9175897E3,5.7148883E2,7.6840385E1,4.7428203E3,3.7324082E4,3.5067438E4,5.9633193E3,3.930168E4,1.7555877E4,1.5831253E4,3.8906924E3,1.2665204E4,4.67603E2,1.3183727E2,7.4796875E2,1.2332071E4,5.831246E2,4.788916E3,4.782295E3,1.4671133E3,3.454518E3,9.050502E2,1.44723E2,2.7002875E4,1.958713E3,1.257564E3,3.905536E2,5.587832E4,3.6693838E3,7.1098663E2,3.3338198E3,4.3814038E2,2.0518114E2,1.5227131E3,1.6400996E3,3.2903653E2,2.5435118E2,2.6036198E1,4.163768E1,1.935745E3,1.1242234E3,3.1945007E2,6.8959015E2],"tree_param":{"num_deleted":"0","num_feature":"764","num_nodes":"127","size_leaf_vector":"1"}},{"base_weights":[-3.3430107E-2,-7.1836494E-2,1.11618765E-1,-9.7272106E-2,1.4108078E-2,2.1114323E-2,1.3666044E-1,-1.7290814E-1,-6.554795E-2,-6.066133E-2,3.8753796E-2,-9.092358E-3,1.4831449E-1,1.2998055E-1,2.5913993E-1,-1.6118571E-1,-3.1667343E-1,-7.553552E-2,1.5227558E-1,-7.456885E-2,1.6778584E-1,7.346214E-2,3.298008E-3,-2.2003913E-2,1.8178076E-1,1.8294367E-1,-6.339384E-2,1.2361637E-1,2.4020252E-1,3.8050678E-1,2.340252E-1,-1.5022594E-1,-3.172318E-1,-3.267956E-1,-1.3052753E-1,-5.7744283E-2,-1.6924872E-1,7.7496536E-2,2.7340138E-1,-1.0483704E-1,9.3766805E-3,3.0298378E-2,2.9132023E-1,6.4233486E-3,9.6150875E-2,-9.1315046E-2,9.224186E-2,-3.2935604E-2,1.8735321E-1,9.818875E-2,2.425346E-1,1.14888646E-1,2.7837303E-1,-1.7332585E-1,1.2027512E-1,1.1766951E-1,2.5527665E-1,2.771756E-1,1.6222407E-1,6.70522E-2,4.0023738E-1,3.0254573E-1,1.9473155E-1,-3.8073555E-2,-7.3444866E-2,-8.354951E-2,-1.0746006E-1,-1.00477085E-1,-6.160819E-2,-4.8631124E-2,8.760476E-2,-1.28338495E-2,-6.1306417E-2,-5.8517367E-2,-2.6685147E-2,-2.779819E-3,5.940802E-2,1.3927594E-1,6.993053E-2,-1.4482024E-2,-6.70423E-2,-4.26607E-2,2.399095E-2,-4.0405266E-2,6.0286596E-2,3.773311E-2,1.11570805E-1,-6.0805486E-4,6.36516E-2,2.5766924E-2,8.576226E-2,-3.02077E-2,4.5594692E-2,-3.0216668E-3,3.962833E-2,-1.3082472E-2,5.5941775E-2,7.845443E-3,8.0006585E-2,8.633813E-2,1.0227495E-2,1.082898E-1,4.8073497E-2,1.7560817E-2,7.665782E-2,8.9764096E-2,1.901738E-2,-6.5702334E-2,7.1378035E-4,2.3999428E-2,2.0226355E-1,1.3946893E-3,3.716467E-2,7.851355E-2,-5.7262108E-2,1.06016155E-2,8.552088E-2,2.7487302E-2,7.214957E-2,-1.3276844E-1,5.5904943E-2,8.970864E-2,1.3094679E-1,9.2521414E-2,-8.237321E-2,8.141677E-2,4.478765E-2],"categories":[],"categories_nodes":[],"categories_segments":[],"categories_sizes":[],"default_left":[0,0,0,0,0,0,0,0,0,0,0,0,0,0,0,0,0,0,0,0,0,0,0,0,0,0,0,0,0,0,0,0,0,0,0,0,0,0,0,0,0,0,0,0,0,0,0,0,0,0,0,0,0,0,0,0,0,0,0,0,0,0,0,0,0,0,0,0,0,0,0,0,0,0,0,0,0,0,0,0,0,0,0,0,0,0,0,0,0,0,0,0,0,0,0,0,0,0,0,0,0,0,0,0,0,0,0,0,0,0,0,0,0,0,0,0,0,0,0,0,0,0,0,0,0,0,0],"id":10,"left_children":[1,3,5,7,9,11,13,15,17,19,21,23,25,27,29,31,33,35,37,39,41,43,45,47,49,51,53,55,57,59,61,63,65,67,69,71,73,75,77,79,81,83,85,87,89,91,93,95,97,99,101,103,105,107,109,111,113,115,117,119,121,123,125,-1,-1,-1,-1,-1,-1,-1,-1,-1,-1,-1,-1,-1,-1,-1,-1,-1,-1,-1,-1,-1,-1,-1,-1,-1,-1,-1,-1,-1,-1,-1,-1,-1,-1,-1,-1,-1,-1,-1,-1,-1,-1,-1,-1,-1,-1,-1,-1,-1,-1,-1,-1,-1,-1,-1,-1,-1,-1,-1,-1,-1,-1,-1,-1],"loss_changes":[3.7285935E3,1.1568364E3,3.175631E2,9.7979565E2,2.2269902E2,1.16686714E2,8.97605E1,2.032959E2,6.258673E2,9.51997E1,1.11851746E2,6.0486496E1,4.2737335E1,7.297815E1,1.7209503E1,1.907561E2,1.7095459E1,4.5860437E2,1.1422E2,7.175928E1,2.9197033E1,6.9859695E1,3.7838004E2,5.261656E1,7.8735466E0,3.2497803E1,1.657757E1,7.701294E1,1.6332031E1,5.98114E0,1.2608337E1,2.2986206E2,1.1516968E1,8.4453125E0,6.328397E0,5.0720062E2,9.0938354E1,8.156682E1,3.691736E1,1.3928159E2,8.010739E1,2.2972023E1,1.203418E1,2.0194445E1,6.678058E1,4.9722702E1,9.450154E1,5.1168427E1,1.4584026E1,7.964895E0,8.711922E0,2.3170326E1,9.319778E0,4.121193E0,6.809364E0,6.610718E1,1.2256439E1,7.343445E0,1.0087734E1,3.652862E0,3.2218628E0,5.876526E0,1.0384537E1,0E0,0E0,0E0,0E0,0E0,0E0,0E0,0E0,0E0,0E0,0E0,0E0,0E0,0E0,0E0,0E0,0E0,0E0,0E0,0E0,0E0,0E0,0E0,0E0,0E0,0E0,0E0,0E0,0E0,0E0,0E0,0E0,0E0,0E0,0E0,0E0,0E0,0E0,0E0,0E0,0E0,0E0,0E0,0E0,0E0,0E0,0E0,0E0,0E0,0E0,0E0,0E0,0E0,0E0,0E0,0E0,0E0,0E0,0E0,0E0,0E0,0E0,0E0,0E0],"parents":[2147483647,0,0,1,1,2,2,3,3,4,4,5,5,6,6,7,7,8,8,9,9,10,10,11,11,12,12,13,13,14,14,15,15,16,16,17,17,18,18,19,19,20,20,21,21,22,22,23,23,24,24,25,25,26,26,27,27,28,28,29,29,30,30,31,31,32,32,33,33,34,34,35,35,36,36,37,37,38,38,39,39,40,40,41,41,42,42,43,43,44,44,45,45,46,46,47,47,48,48,49,49,50,50,51,51,52,52,53,53,54,54,55,55,56,56,57,57,58,58,59,59,60,60,61,61,62,62],"right_children":[2,4,6,8,10,12,14,16,18,20,22,24,26,28,30,32,34,36,38,40,42,44,46,48,50,52,54,56,58,60,62,64,66,68,70,72,74,76,78,80,82,84,86,88,90,92,94,96,98,100,102,104,106,108,110,112,114,116,118,120,122,124,126,-1,-1,-1,-1,-1,-1,-1,-1,-1,-1,-1,-1,-1,-1,-1,-1,-1,-1,-1,-1,-1,-1,-1,-1,-1,-1,-1,-1,-1,-1,-1,-1,-1,-1,-1,-1,-1,-1,-1,-1,-1,-1,-1,-1,-1,-1,-1,-1,-1,-1,-1,-1,-1,-1,-1,-1,-1,-1,-1,-1,-1,-1,-1,-1],"split_conditions":[1E0,1.171E3,9.02E2,1.036E3,9.2E2,1.189E3,1E0,1E0,1E0,1E0,3E0,1E0,2.343E3,1E0,1.1E3,1E0,1E0,1E0,1E0,4E0,1E0,9E0,4E0,1E0,1.5E1,7.2E2,2.586E3,1E0,1.856E3,3E0,1.2E1,1E0,3E0,1E0,3E1,1E0,4E0,1.719E3,1.14E3,3E0,1.1E1,1E0,1.1E1,1E0,1E0,1E0,1E1,1E0,7.02E2,2E0,2.2E1,1.635E3,1E0,1E0,1E0,2.24E2,2.207E3,2E0,3E0,3.56E2,3E0,1E0,1.525E3,-3.8073555E-2,-7.3444866E-2,-8.354951E-2,-1.0746006E-1,-1.00477085E-1,-6.160819E-2,-4.8631124E-2,8.760476E-2,-1.28338495E-2,-6.1306417E-2,-5.8517367E-2,-2.6685147E-2,-2.779819E-3,5.940802E-2,1.3927594E-1,6.993053E-2,-1.4482024E-2,-6.70423E-2,-4.26607E-2,2.399095E-2,-4.0405266E-2,6.0286596E-2,3.773311E-2,1.11570805E-1,-6.0805486E-4,6.36516E-2,2.5766924E-2,8.576226E-2,-3.02077E-2,4.5594692E-2,-3.0216668E-3,3.962833E-2,-1.3082472E-2,5.5941775E-2,7.845443E-3,8.0006585E-2,8.633813E-2,1.0227495E-2,1.082898E-1,4.8073497E-2,1.7560817E-2,7.665782E-2,8.9764096E-2,1.901738E-2,-6.5702334E-2,7.1378035E-4,2.3999428E-2,2.0226355E-1,1.3946893E-3,3.716467E-2,7.851355E-2,-5.7262108E-2,1.06016155E-2,8.552088E-2,2.7487302E-2,7.214957E-2,-1.3276844E-1,5.5904943E-2,8.970864E-2,1.3094679E-1,9.2521414E-2,-8.237321E-2,8.141677E-2,4.478765E-2],"split_indices":[4,762,763,763,763,762,27,9,23,26,0,23,762,44,763,10,39,7,8,0,15,2,0,28,2,763,762,55,763,2,2,7,0,22,2,9,0,763,763,0,2,6,2,30,26,20,2,27,763,0,2,762,399,51,418,762,763,2,0,762,3,471,763,0,0,0,0,0,0,0,0,0,0,0,0,0,0,0,0,0,0,0,0,0,0,0,0,0,0,0,0,0,0,0,0,0,0,0,0,0,0,0,0,0,0,0,0,0,0,0,0,0,0,0,0,0,0,0,0,0,0,0,0,0,0,0,0],"split_type":[0,0,0,0,0,0,0,0,0,0,0,0,0,0,0,0,0,0,0,0,0,0,0,0,0,0,0,0,0,0,0,0,0,0,0,0,0,0,0,0,0,0,0,0,0,0,0,0,0,0,0,0,0,0,0,0,0,0,0,0,0,0,0,0,0,0,0,0,0,0,0,0,0,0,0,0,0,0,0,0,0,0,0,0,0,0,0,0,0,0,0,0,0,0,0,0,0,0,0,0,0,0,0,0,0,0,0,0,0,0,0,0,0,0,0,0,0,0,0,0,0,0,0,0,0,0,0],"sum_hessian":[6.693074E5,5.291881E5,1.401192E5,4.083387E5,1.20849445E5,3.036766E4,1.0975155E5,1.2065981E5,2.8767888E5,2.9959078E4,9.089037E4,2.4540799E4,5.826863E3,1.0407734E5,5.6742E3,1.1156507E5,9.094741E3,2.7506725E5,1.2611644E4,2.8240512E4,1.7185668E3,4.592876E4,4.496161E4,2.298675E4,1.5540472E3,5.007862E3,8.190011E2,9.839801E4,5.6793403E3,9.704329E2,4.703767E3,1.0424543E5,7.319637E3,8.6249795E3,4.6976212E2,2.3117988E5,4.3887367E4,7.7986533E3,4.8129897E3,2.0756209E4,7.484302E3,8.139392E2,9.0462756E2,1.1613988E4,3.4314773E4,2.1786467E4,2.3175143E4,2.184685E4,1.1399019E3,6.551853E2,8.988619E2,2.9244832E3,2.0833787E3,5.1238055E2,3.0662054E2,9.414743E4,4.250579E3,3.8509001E3,1.8284401E3,5.772769E1,9.1270526E2,1.7118793E3,2.9918877E3,8.36341E4,2.0611332E4,3.7664531E3,3.553184E3,8.082254E3,5.427256E2,4.3767172E2,3.209038E1,2.0976961E5,2.1410262E4,3.3211285E4,1.0676081E4,4.535056E3,3.2635972E3,8.3727655E2,3.9757131E3,1.4056019E4,6.7001914E3,2.3777456E3,5.106556E3,4.1395703E2,3.9998218E2,2.9701685E2,6.076107E2,1.1156765E4,4.5722363E2,3.255547E4,1.7593011E3,2.097849E4,8.0797656E2,6.4967324E3,1.667841E4,2.0834215E4,1.01263367E3,3.7640787E2,7.6349396E2,1.6464893E2,4.9053638E2,3.6711804E2,5.3174384E2,2.0888923E3,8.3559076E2,1.8989045E3,1.8447409E2,4.0645822E2,1.0592232E2,2.8690402E2,1.9716524E1,4.9056953E3,8.9241734E4,4.190549E3,6.002989E1,1.21899895E2,3.7290002E3,9.6249084E2,8.6594916E2,1.0436309E1,4.7291386E1,2.4314297E2,6.6956226E2,1.6951357E3,1.6743496E1,1.1116045E3,1.8802833E3],"tree_param":{"num_deleted":"0","num_feature":"764","num_nodes":"127","size_leaf_vector":"1"}},{"base_weights":[-2.1124248E-1,-2.9443777E-1,-1.07907295E-1,-3.4742486E-1,-2.4013534E-1,-1.5107433E-1,5.4582857E-2,-3.5195976E-1,-1.5797977E-1,-3.375459E-1,-2.2280434E-1,-1.6464132E-1,7.2508216E-2,-8.979932E-2,1.0557513E-1,-3.8560903E-1,-3.2473278E-1,-2.0131934E-2,-2.1110296E-1,-3.2622066E-1,-4.2350504E-1,-2.5638762E-1,-1.8098591E-1,-1.7415239E-1,1.5674905E-1,1.0387797E-1,-1.3928266E-1,-1.620501E-1,-1.1835223E-2,1.9669516E-1,-2.8071844E-3,-3.7086445E-1,-4.493309E-1,-3.3030194E-1,-1.8334074E-1,-8.7213896E-2,1.6327061E-1,-3.0497697E-1,-1.0250421E-1,-3.1750754E-1,-4.538378E-1,-4.2515734E-1,4.8759368E-1,-2.7221224E-1,-1.9129841E-1,-1.3930707E-1,-2.2519657E-1,-1.9973849E-1,-6.0660683E-2,3.3222903E-2,2.2501776E-1,1.1809893E-2,1.696978E-1,-3.9346468E-2,-2.491495E-1,-2.672511E-1,-1.2740265E-1,8.402664E-2,-1.14566974E-1,9.923756E-2,2.95241E-1,-1.5028515E-1,1.1033025E-1,-6.466211E-2,-1.1259644E-1,-1.2759715E-1,-1.4324975E-1,-1.0409799E-1,-8.4457174E-2,-7.1751766E-2,-3.0144734E-2,-2.8529352E-2,4.434079E-1,1.0897249E-1,-7.723179E-3,-4.7687728E-2,-9.959342E-2,5.3545807E-2,-4.5841284E-2,-9.302367E-2,-1.3567609E-1,-1.3817906E-1,-5.662636E-2,-1.442025E-1,-1.2066076E-1,3.2012412E-1,-3.9401237E-2,-8.999547E-2,-6.791836E-2,-6.110498E-2,5.513287E-3,-3.5558984E-2,-8.392983E-2,-9.9399954E-2,-3.97785E-2,-6.2924474E-2,1.7950613E-2,-4.1503843E-2,4.6865463E-2,2.9954994E-2,-2.010334E-2,4.1015323E-2,9.570983E-2,4.26773E-2,-1.6217696E-2,3.0155802E-2,9.074205E-2,-1.1669137E-1,-8.999675E-4,-1.041978E-1,-1.1971141E-2,-9.366504E-2,-1.0224776E-2,-4.418728E-2,4.448441E-2,1.2312933E-2,1.7791179E-1,-5.460225E-2,3.0342156E-2,1.8446226E-1,-4.8926556E-3,4.918005E-2,1.1447202E-1,-7.418832E-2,-2.5443688E-2,-7.7834554E-2,5.411868E-2],"categories":[],"categories_nodes":[],"categories_segments":[],"categories_sizes":[],"default_left":[0,0,0,0,0,0,0,0,0,0,0,0,0,0,0,0,0,0,0,0,0,0,0,0,0,0,0,0,0,0,0,0,0,0,0,0,0,0,0,0,0,0,0,0,0,0,0,0,0,0,0,0,0,0,0,0,0,0,0,0,0,0,0,0,0,0,0,0,0,0,0,0,0,0,0,0,0,0,0,0,0,0,0,0,0,0,0,0,0,0,0,0,0,0,0,0,0,0,0,0,0,0,0,0,0,0,0,0,0,0,0,0,0,0,0,0,0,0,0,0,0,0,0,0,0,0,0],"id":11,"left_children":[1,3,5,7,9,11,13,15,17,19,21,23,25,27,29,31,33,35,37,39,41,43,45,47,49,51,53,55,57,59,61,63,65,67,69,71,73,75,77,79,81,83,85,87,89,91,93,95,97,99,101,103,105,107,109,111,113,115,117,119,121,123,125,-1,-1,-1,-1,-1,-1,-1,-1,-1,-1,-1,-1,-1,-1,-1,-1,-1,-1,-1,-1,-1,-1,-1,-1,-1,-1,-1,-1,-1,-1,-1,-1,-1,-1,-1,-1,-1,-1,-1,-1,-1,-1,-1,-1,-1,-1,-1,-1,-1,-1,-1,-1,-1,-1,-1,-1,-1,-1,-1,-1,-1,-1,-1,-1],"loss_changes":[4.5946855E3,8.5183984E2,1.6720349E3,1.2868555E2,2.4679102E2,5.7131836E2,3.6838995E2,1.3395312E2,2.5663284E1,2.1361816E1,1.7430225E2,5.4281006E2,7.160492E1,7.356295E1,3.6517657E2,6.132617E1,6.3643555E1,1.2023603E1,2.5760735E1,2.1559326E1,4.0726624E0,7.086377E1,1.0186047E2,5.0079248E2,4.3037247E1,5.6875854E1,1.525803E1,2.467186E1,6.1880745E1,1.9289838E2,2.8182538E2,3.6717773E1,8.110352E0,6.3271484E1,1.4168945E1,8.968371E0,9.903401E0,5.2953033E0,1.6627361E1,1.8151855E1,2.143982E0,3.073578E0,1.974309E0,7.04043E1,3.497876E1,8.303955E1,2.6366736E2,3.6568164E2,5.346138E2,1.2148133E1,2.724591E1,3.3637264E1,5.0240997E1,9.267478E0,1.3589306E1,1.7586365E1,2.7988686E1,7.109448E1,4.4141373E1,6.0184894E2,1.1316028E2,4.6551224E1,2.4768616E2,0E0,0E0,0E0,0E0,0E0,0E0,0E0,0E0,0E0,0E0,0E0,0E0,0E0,0E0,0E0,0E0,0E0,0E0,0E0,0E0,0E0,0E0,0E0,0E0,0E0,0E0,0E0,0E0,0E0,0E0,0E0,0E0,0E0,0E0,0E0,0E0,0E0,0E0,0E0,0E0,0E0,0E0,0E0,0E0,0E0,0E0,0E0,0E0,0E0,0E0,0E0,0E0,0E0,0E0,0E0,0E0,0E0,0E0,0E0,0E0,0E0,0E0,0E0,0E0],"parents":[2147483647,0,0,1,1,2,2,3,3,4,4,5,5,6,6,7,7,8,8,9,9,10,10,11,11,12,12,13,13,14,14,15,15,16,16,17,17,18,18,19,19,20,20,21,21,22,22,23,23,24,24,25,25,26,26,27,27,28,28,29,29,30,30,31,31,32,32,33,33,34,34,35,35,36,36,37,37,38,38,39,39,40,40,41,41,42,42,43,43,44,44,45,45,46,46,47,47,48,48,49,49,50,50,51,51,52,52,53,53,54,54,55,55,56,56,57,57,58,58,59,59,60,60,61,61,62,62],"right_children":[2,4,6,8,10,12,14,16,18,20,22,24,26,28,30,32,34,36,38,40,42,44,46,48,50,52,54,56,58,60,62,64,66,68,70,72,74,76,78,80,82,84,86,88,90,92,94,96,98,100,102,104,106,108,110,112,114,116,118,120,122,124,126,-1,-1,-1,-1,-1,-1,-1,-1,-1,-1,-1,-1,-1,-1,-1,-1,-1,-1,-1,-1,-1,-1,-1,-1,-1,-1,-1,-1,-1,-1,-1,-1,-1,-1,-1,-1,-1,-1,-1,-1,-1,-1,-1,-1,-1,-1,-1,-1,-1,-1,-1,-1,-1,-1,-1,-1,-1,-1,-1,-1,-1,-1,-1,-1],"split_conditions":[1.452E3,1.026E3,1E0,1E0,6E0,1E0,1E1,7.41E2,2E0,1E0,7.73E2,1E0,1E0,6E0,3E0,1E0,1E0,6E0,1.8E1,1E0,1E0,1E0,3E0,2.6E1,1.705E3,4E0,3E0,2E0,8E0,2E0,4E0,5E2,3E0,4E0,5E0,1E0,1.4E1,5.5E2,5E2,1E0,1E0,4E0,5E0,5E0,1E0,1E0,4E0,1E0,4E0,3E0,1.8E1,2E0,2E1,4E0,2.2E1,5E0,1E0,1E0,4E0,1.4E1,1.75E3,4E0,1.4E1,-6.466211E-2,-1.1259644E-1,-1.2759715E-1,-1.4324975E-1,-1.0409799E-1,-8.4457174E-2,-7.1751766E-2,-3.0144734E-2,-2.8529352E-2,4.434079E-1,1.0897249E-1,-7.723179E-3,-4.7687728E-2,-9.959342E-2,5.3545807E-2,-4.5841284E-2,-9.302367E-2,-1.3567609E-1,-1.3817906E-1,-5.662636E-2,-1.442025E-1,-1.2066076E-1,3.2012412E-1,-3.9401237E-2,-8.999547E-2,-6.791836E-2,-6.110498E-2,5.513287E-3,-3.5558984E-2,-8.392983E-2,-9.9399954E-2,-3.97785E-2,-6.2924474E-2,1.7950613E-2,-4.1503843E-2,4.6865463E-2,2.9954994E-2,-2.010334E-2,4.1015323E-2,9.570983E-2,4.26773E-2,-1.6217696E-2,3.0155802E-2,9.074205E-2,-1.1669137E-1,-8.999675E-4,-1.041978E-1,-1.1971141E-2,-9.366504E-2,-1.0224776E-2,-4.418728E-2,4.448441E-2,1.2312933E-2,1.7791179E-1,-5.460225E-2,3.0342156E-2,1.8446226E-1,-4.8926556E-3,4.918005E-2,1.1447202E-1,-7.418832E-2,-2.5443688E-2,-7.7834554E-2,5.411868E-2],"split_indices":[763,763,4,16,2,13,2,763,0,6,762,18,37,2,0,4,13,3,2,9,469,4,0,2,763,3,0,0,2,0,0,763,0,0,3,484,2,763,763,11,391,3,3,3,28,6,0,16,0,0,2,3,2,2,2,2,44,23,3,2,763,3,2,0,0,0,0,0,0,0,0,0,0,0,0,0,0,0,0,0,0,0,0,0,0,0,0,0,0,0,0,0,0,0,0,0,0,0,0,0,0,0,0,0,0,0,0,0,0,0,0,0,0,0,0,0,0,0,0,0,0,0,0,0,0,0,0],"split_type":[0,0,0,0,0,0,0,0,0,0,0,0,0,0,0,0,0,0,0,0,0,0,0,0,0,0,0,0,0,0,0,0,0,0,0,0,0,0,0,0,0,0,0,0,0,0,0,0,0,0,0,0,0,0,0,0,0,0,0,0,0,0,0,0,0,0,0,0,0,0,0,0,0,0,0,0,0,0,0,0,0,0,0,0,0,0,0,0,0,0,0,0,0,0,0,0,0,0,0,0,0,0,0,0,0,0,0,0,0,0,0,0,0,0,0,0,0,0,0,0,0,0,0,0,0,0,0],"sum_hessian":[5.344552E5,2.9607944E5,2.3837578E5,1.498519E5,1.4622753E5,1.8834123E5,5.0034547E4,1.4634781E5,3.504098E3,2.2083969E4,1.2414356E5,1.7756675E5,1.0774483E4,1.30587E4,3.6975848E4,6.5448324E4,8.089949E4,9.7513275E2,2.5289653E3,1.9517326E4,2.566641E3,6.884824E4,5.529532E4,1.724634E5,5.1033364E3,9.38493E3,1.3895544E3,6.7771294E3,6.2815713E3,2.008718E4,1.6888668E4,5.3155516E4,1.2292808E4,7.7832484E4,3.067001E3,7.143676E2,2.6076514E2,1.3554716E3,1.1734938E3,1.8273205E4,1.2441217E3,2.5625273E3,4.1138945E0,5.5380773E4,1.3467465E4,2.8464785E4,2.6830533E4,1.4073473E5,3.1728674E4,1.8170438E3,3.2862927E3,3.9128528E3,5.4720767E3,7.2837445E2,6.6118E2,1.6773704E3,5.0997593E3,3.249528E3,3.0320432E3,1.0100363E4,9.986817E3,7.3315054E3,9.557161E3,1.4841151E3,5.1671402E4,6.6452944E3,5.647513E3,5.798462E4,1.9847867E4,1.8312064E3,1.2357946E3,7.11722E2,2.6456172E0,1.26262215E2,1.3450293E2,2.1260767E2,1.1428639E3,1.777855E2,9.957082E2,1.7321557E4,9.516492E2,1.2124689E3,3.165281E1,7.437594E2,1.818768E3,1.7506982E0,2.3631961E0,3.447688E4,2.0903896E4,1.2716379E4,7.5108496E2,2.4798377E4,3.6664092E3,1.2500422E4,1.4330112E4,1.3550939E5,5.2253535E3,2.3361137E4,8.367536E3,1.0915066E3,7.255371E2,1.6959192E3,1.5903737E3,1.3124655E3,2.6003872E3,3.598797E3,1.8732794E3,6.767677E1,6.606977E2,4.495804E2,2.1159956E2,1.4059073E3,2.714631E2,4.7570444E3,3.427148E2,2.997486E3,2.5204187E2,2.3099866E3,7.2205646E2,1.848214E3,8.252148E3,3.962674E3,6.024143E3,2.9531426E3,4.378363E3,1.5219861E3,8.0351753E3],"tree_param":{"num_deleted":"0","num_feature":"764","num_nodes":"127","size_leaf_vector":"1"}},{"base_weights":[1.2375133E-1,1.8309878E-1,5.3967115E-2,2.058584E-1,8.2564674E-2,9.253716E-2,-1.4331427E-1,2.3137513E-1,1.3964923E-1,1.5184134E-1,7.27962E-3,1.328706E-1,2.4709793E-2,-1.2585394E-1,-4.0117237E-1,2.8525174E-1,2.0506272E-1,1.6759732E-1,5.7974026E-2,2.3230666E-1,1.20702334E-1,2.3095978E-2,-2.3486353E-1,1.4028601E-1,-2.5075087E-1,3.5410807E-2,-2.867216E-1,-1.1085972E-1,-3.9139324E-1,-2.1799634E-1,-4.3213263E-1,2.9178727E-1,9.4760194E-2,1.9368653E-1,3.6289212E-1,1.0969281E-1,2.895588E-1,1.8763575E-1,-4.6275392E-2,2.4179076E-1,2.2816503E-2,6.039287E-2,1.8606833E-1,3.851362E-2,-2.3638882E-1,-1.5848738E-1,-3.5492927E-1,1.5446366E-1,-6.834081E-2,-3.1837842E-1,-1.5595883E-1,-1.4390269E-2,8.812593E-2,-2.0752063E-1,-5.2562165E-1,-9.4558224E-2,-3.5758227E-1,-2.3472337E-1,-4.2505223E-1,-2.5276288E-1,7.752419E-2,-4.0278202E-1,-5.2342796E-1,9.607755E-2,7.493093E-2,3.3745505E-2,-1.0832734E-1,5.4375533E-2,9.7100444E-2,7.990108E-2,1.1751874E-1,4.225927E-2,6.726016E-3,1.04463555E-1,7.3831156E-2,7.9689786E-2,4.0344484E-2,-2.925794E-2,3.6238387E-2,7.539697E-2,5.801347E-3,3.1004569E-2,-4.6297573E-2,4.89185E-2,-1.47327995E-2,9.377145E-2,1.9076403E-2,1.5736762E-2,-5.6032546E-2,-5.991393E-2,-1.2338155E-1,-3.3832885E-2,-9.947708E-2,-1.1863568E-1,-6.49416E-2,6.256991E-2,3.3693906E-2,-5.34069E-3,-8.575365E-2,-5.7132892E-2,-1.2100919E-1,-8.566697E-3,-8.1917636E-2,4.6055913E-2,-1.1601068E-2,5.5369027E-2,1.02094884E-4,-2.7061012E-2,-8.563481E-2,-1.6735281E-1,-4.244481E-2,2.0721292E-3,-3.9696634E-2,-7.091697E-2,-1.3460158E-1,-8.846268E-2,-1.9051604E-2,-1.1878912E-1,-1.4644787E-1,-7.820743E-2,1.7624988E-1,-1.0485857E-1,7.405047E-2,-1.4075886E-1,-8.856557E-2,-1.3092892E-1,-1.6908053E-1],"categories":[],"categories_nodes":[],"categories_segments":[],"categories_sizes":[],"default_left":[0,0,0,0,0,0,0,0,0,0,0,0,0,0,0,0,0,0,0,0,0,0,0,0,0,0,0,0,0,0,0,0,0,0,0,0,0,0,0,0,0,0,0,0,0,0,0,0,0,0,0,0,0,0,0,0,0,0,0,0,0,0,0,0,0,0,0,0,0,0,0,0,0,0,0,0,0,0,0,0,0,0,0,0,0,0,0,0,0,0,0,0,0,0,0,0,0,0,0,0,0,0,0,0,0,0,0,0,0,0,0,0,0,0,0,0,0,0,0,0,0,0,0,0,0,0,0],"id":12,"left_children":[1,3,5,7,9,11,13,15,17,19,21,23,25,27,29,31,33,35,37,39,41,43,45,47,49,51,53,55,57,59,61,63,65,67,69,71,73,75,77,79,81,83,85,87,89,91,93,95,97,99,101,103,105,107,109,111,113,115,117,119,121,123,125,-1,-1,-1,-1,-1,-1,-1,-1,-1,-1,-1,-1,-1,-1,-1,-1,-1,-1,-1,-1,-1,-1,-1,-1,-1,-1,-1,-1,-1,-1,-1,-1,-1,-1,-1,-1,-1,-1,-1,-1,-1,-1,-1,-1,-1,-1,-1,-1,-1,-1,-1,-1,-1,-1,-1,-1,-1,-1,-1,-1,-1,-1,-1,-1],"loss_changes":[3.3794062E3,1.0089678E3,2.8535898E3,6.074326E2,4.2455487E2,8.581643E2,2.760714E2,3.6786914E2,2.2832117E2,1.0619226E2,1.4940979E2,5.596306E2,3.8985236E2,2.2866211E2,2.1960876E1,1.05992676E2,3.1302832E2,5.2627783E2,3.447417E2,2.3492859E1,1.2048926E2,1.4651187E2,2.1878494E1,5.708286E2,2.3866455E1,2.9689905E2,7.341864E1,2.1864966E2,1.6088287E1,5.8172646E0,8.700562E0,9.841553E1,2.2876637E1,2.6284375E2,3.25365E1,1.3747345E2,6.1063232E1,4.7088257E1,1.21067245E2,2.3988342E1,7.339233E0,1.7876147E2,2.2724893E2,1.08585495E2,1.309166E1,1.1545128E1,5.127777E0,4.1206738E2,1.3499039E2,2.358638E1,2.3196342E1,2.3709233E2,4.6510352E2,2.6671143E1,1.1888611E1,1.9543427E2,3.7091064E1,5.595478E0,4.443054E0,3.5183563E0,4.43638E0,1.7870422E1,2.5700836E0,0E0,0E0,0E0,0E0,0E0,0E0,0E0,0E0,0E0,0E0,0E0,0E0,0E0,0E0,0E0,0E0,0E0,0E0,0E0,0E0,0E0,0E0,0E0,0E0,0E0,0E0,0E0,0E0,0E0,0E0,0E0,0E0,0E0,0E0,0E0,0E0,0E0,0E0,0E0,0E0,0E0,0E0,0E0,0E0,0E0,0E0,0E0,0E0,0E0,0E0,0E0,0E0,0E0,0E0,0E0,0E0,0E0,0E0,0E0,0E0,0E0,0E0,0E0,0E0],"parents":[2147483647,0,0,1,1,2,2,3,3,4,4,5,5,6,6,7,7,8,8,9,9,10,10,11,11,12,12,13,13,14,14,15,15,16,16,17,17,18,18,19,19,20,20,21,21,22,22,23,23,24,24,25,25,26,26,27,27,28,28,29,29,30,30,31,31,32,32,33,33,34,34,35,35,36,36,37,37,38,38,39,39,40,40,41,41,42,42,43,43,44,44,45,45,46,46,47,47,48,48,49,49,50,50,51,51,52,52,53,53,54,54,55,55,56,56,57,57,58,58,59,59,60,60,61,61,62,62],"right_children":[2,4,6,8,10,12,14,16,18,20,22,24,26,28,30,32,34,36,38,40,42,44,46,48,50,52,54,56,58,60,62,64,66,68,70,72,74,76,78,80,82,84,86,88,90,92,94,96,98,100,102,104,106,108,110,112,114,116,118,120,122,124,126,-1,-1,-1,-1,-1,-1,-1,-1,-1,-1,-1,-1,-1,-1,-1,-1,-1,-1,-1,-1,-1,-1,-1,-1,-1,-1,-1,-1,-1,-1,-1,-1,-1,-1,-1,-1,-1,-1,-1,-1,-1,-1,-1,-1,-1,-1,-1,-1,-1,-1,-1,-1,-1,-1,-1,-1,-1,-1,-1,-1,-1,-1,-1,-1],"split_conditions":[1.405E3,1E0,1E0,1.055E3,9.5E2,8.68E2,1E0,8.25E2,4E0,1E1,1E0,1E0,1E0,1E0,5E0,1E0,1E0,3E0,1.5E1,1E0,3E0,1E0,9.5E2,1E0,3E0,3E0,1.937E3,1E0,6E0,6E0,4E0,5E0,1E0,1E0,2E0,6E0,4E0,8.39E2,1E0,1E0,9.37E2,2E0,4E0,1E0,1.237E3,1.305E3,6E0,4E0,1E0,2E0,4E0,5E0,4E0,1E0,1E0,9E0,1.822E3,6E0,1.941E3,1E0,1.635E3,3E0,1.4E1,9.607755E-2,7.493093E-2,3.3745505E-2,-1.0832734E-1,5.4375533E-2,9.7100444E-2,7.990108E-2,1.1751874E-1,4.225927E-2,6.726016E-3,1.04463555E-1,7.3831156E-2,7.9689786E-2,4.0344484E-2,-2.925794E-2,3.6238387E-2,7.539697E-2,5.801347E-3,3.1004569E-2,-4.6297573E-2,4.89185E-2,-1.47327995E-2,9.377145E-2,1.9076403E-2,1.5736762E-2,-5.6032546E-2,-5.991393E-2,-1.2338155E-1,-3.3832885E-2,-9.947708E-2,-1.1863568E-1,-6.49416E-2,6.256991E-2,3.3693906E-2,-5.34069E-3,-8.575365E-2,-5.7132892E-2,-1.2100919E-1,-8.566697E-3,-8.1917636E-2,4.6055913E-2,-1.1601068E-2,5.5369027E-2,1.02094884E-4,-2.7061012E-2,-8.563481E-2,-1.6735281E-1,-4.244481E-2,2.0721292E-3,-3.9696634E-2,-7.091697E-2,-1.3460158E-1,-8.846268E-2,-1.9051604E-2,-1.1878912E-1,-1.4644787E-1,-7.820743E-2,1.7624988E-1,-1.0485857E-1,7.405047E-2,-1.4075886E-1,-8.856557E-2,-1.3092892E-1,-1.6908053E-1],"split_indices":[763,4,4,762,763,762,23,763,0,2,23,18,39,49,2,14,10,0,2,44,0,28,762,8,0,0,763,44,2,3,0,3,22,9,0,3,3,763,5,55,762,0,0,49,762,763,3,3,23,0,0,2,0,8,14,2,763,3,763,472,763,0,2,0,0,0,0,0,0,0,0,0,0,0,0,0,0,0,0,0,0,0,0,0,0,0,0,0,0,0,0,0,0,0,0,0,0,0,0,0,0,0,0,0,0,0,0,0,0,0,0,0,0,0,0,0,0,0,0,0,0,0,0,0,0,0,0],"split_type":[0,0,0,0,0,0,0,0,0,0,0,0,0,0,0,0,0,0,0,0,0,0,0,0,0,0,0,0,0,0,0,0,0,0,0,0,0,0,0,0,0,0,0,0,0,0,0,0,0,0,0,0,0,0,0,0,0,0,0,0,0,0,0,0,0,0,0,0,0,0,0,0,0,0,0,0,0,0,0,0,0,0,0,0,0,0,0,0,0,0,0,0,0,0,0,0,0,0,0,0,0,0,0,0,0,0,0,0,0,0,0,0,0,0,0,0,0,0,0,0,0,0,0,0,0,0,0],"sum_hessian":[8.1598425E5,4.4096622E5,3.7501803E5,3.5956447E5,8.1401766E4,3.1368978E5,6.1328258E4,2.5953738E5,1.00027086E5,4.2391996E4,3.9009773E4,1.9671345E5,1.1697631E5,5.7440297E4,3.8879636E3,8.51587E4,1.7437867E5,7.452473E4,2.5502361E4,1.1826097E4,3.0565898E4,3.66188E4,2.3909702E3,1.929837E5,3.7297446E3,1.130913E5,3.8850142E3,5.4371516E4,3.0687805E3,5.6329254E2,3.3246711E3,8.233342E4,2.8252812E3,1.6265677E5,1.1721908E4,5.053416E4,2.3990562E4,1.1365524E4,1.4136836E4,1.1313744E4,5.123531E2,1.5898855E4,1.4667043E4,3.4565875E4,2.0529265E3,1.4627845E3,9.281858E2,1.8070388E5,1.2279841E4,2.1753933E3,1.5543514E3,5.8153348E4,5.4937953E4,2.9191248E3,9.6588934E2,5.1003016E4,3.3684985E3,5.441133E2,2.5246672E3,5.0412894E2,5.9163593E1,2.5199438E3,8.0472723E2,4.907405E4,3.325937E4,2.720263E3,1.0501846E2,1.4845692E5,1.4199833E4,2.6980945E3,9.023814E3,3.7234438E4,1.3299727E4,1.020688E4,1.3783683E4,4.604709E3,6.7608154E3,1.081852E4,3.3183164E3,1.0848729E4,4.650152E2,3.5251126E2,1.5984184E2,8.205203E3,7.6936523E3,7.2142695E3,7.4527734E3,3.2552117E4,2.013758E3,1.6988027E3,3.5412387E2,1.1585095E3,3.0427493E2,7.1659906E2,2.1158673E2,7.913097E4,1.015729E5,9.965402E3,2.3144385E3,8.695828E2,1.3058105E3,7.450216E2,8.093298E2,7.3460225E3,5.0807324E4,2.6178395E4,2.8759559E4,1.1659741E3,1.7531505E3,8.9072455E2,7.516484E1,1.3834044E4,3.7168973E4,1.4469565E3,1.9215421E3,4.021189E2,1.4199437E2,1.7330941E3,7.915731E2,5.0009985E2,4.0290976E0,1.649466E1,